3827 64
1967 -0.10927961 -0.051271487 -0.00046692096 0.22395773 -0.0060541136 0.22850047 -0.29538044 0.31840003 -0.12680879 0.14766 -0.055772487 0.09480861 0.24847265 0.39479578 0.2489314 0.21142124 -0.39613703 0.10729622 0.28245732 -0.21165498 0.014993161 0.23003098 0.03205225 0.37347454 0.27310804 0.06376237 0.10631912 -0.46600842 -0.20907527 0.006699547 0.17351918 -0.18259963 -0.3584457 -0.30136704 0.43396616 -0.019700011 -0.24440101 0.056705993 -0.23245873 -0.24832974 -0.17651503 -0.07140032 0.19687162 0.14712143 -0.06832684 0.11308472 -0.30366963 -0.16294599 0.044320986 0.24138343 0.2842466 -0.29496798 0.060559027 -0.19066368 0.10224682 -0.3397094 0.3508509 0.25557095 -0.049579356 0.069594584 0.0501961 0.22103642 -0.057998586 0.43786237
1105 -0.20400251 0.11681038 0.18274096 -0.1480945 -0.25974128 -0.021424888 -0.14883676 0.1411396 0.018905267 0.31544673 -0.33050442 -0.22076787 -0.2097033 0.09897172 0.022617718 0.30638567 0.078595586 0.035970457 0.5972594 -0.11370778 0.11895407 -0.050652176 0.1726557 0.39539394 -0.26005977 0.16276716 0.28617933 -0.18044753 0.15368938 0.42920524 -0.39909455 -0.035427835 -0.20937645 -0.12940428 0.034855224 -0.008534717 0.37780637 -0.119664885 -0.21612138 -0.59495467 -0.10993388 -0.10458077 -0.1425117 0.21429315 0.07424973 0.15066262 0.25132287 0.18062976 -0.13721119 -0.2572148 -0.3151582 -0.008089616 0.0942306 0.24548894 -0.16805297 -0.28821933 -0.16963695 0.25317305 -0.011885746 -0.079191126 0.5399008 -0.008504162 -0.17966324 0.27744162
573 0.11226492 0.17099753 -0.30068305 -0.32382277 -0.2820966 0.52888435 -0.012935865 -0.17044184 -0.20380752 0.16111891 0.2102148 -0.48377573 -0.08444789 -0.24131505 -0.12734632 0.2954598 -0.10002191 -0.2690999 -0.08100635 0.23322366 0.1399769 -0.019458858 0.10522957 0.03025125 0.20122938 0.38407975 0.009533645 -0.088332444 0.18168172 0.03664122 -0.07449275 -0.2254347 -0.27598122 -0.22150053 0.5528417 -0.10989455 -0.35936525 -0.14773563 -0.32536554 -0.006809403 0.00078425696 -0.07627003 0.10308978 0.19591235 -0.022114635 -0.025517207 -0.28364596 -0.013522742 -0.14796238 0.021017356 -0.01614473 -0.06912775 -0.113976225 0.089358635 0.39198232 -0.4973247 0.10979127 0.25556344 -0.03906814 0.56719714 0.43916047 -0.281512 0.1757425 -0.3787382
1862 -0.096180946 -0.09514065 0.18226764 -0.097663954 -0.16858543 -0.09059664 -0.07004522 -0.20194438 0.0071544326 -0.028675854 0.23023953 0.1760296 0.28571236 -0.23098576 0.033690814 -0.0080478145 -0.15019533 0.021284174 -0.11549138 -0.040075157 0.28747183 0.02465746 0.08043318 0.35961378 -0.63981974 0.0006845474 0.051455222 -0.6455478 0.16776708 -0.0046621864 -0.0056932974 -0.29717067 -0.4636505 -0.16859688 -0.28506762 -0.25855097 0.18129651 0.20710722 -0.34010327 -0.529604 0.09606025 0.12511952 -0.2742793 -0.13457157 0.34569973 0.16412771 -0.4012149 -0.07548464 0.090195276 -0.059071444 -0.17980993 -0.38172856 -0.4293555 -0.20009491 0.27008453 -0.19137755 0.2054085 0.19673377 0.08322445 0.5182558 0.32051495 0.07911948 -0.001500338 -0.051996864
308 -0.30805525 0.066862844 0.597538 -0.11415419 -0.20755036 -0.23567678 -0.06534222 0.0010120544 -0.20063719 0.22650896 -0.63631153 -0.5812349 -0.40662223 0.13652584 -0.026535705 0.41485 -0.18473423 0.03832027 0.4001059 -0.23203596 0.14612858 -0.22000146 0.35155752 0.45066386 -0.36710155 -0.13727857 0.08390653 -0.2534389 0.41311434 0.16462433 -0.41142973 0.31685367 -0.046223737 0.14164793 -0.09769756 -0.3238066 0.13858071 -0.022791231 -0.21977448 -0.012477096 -0.20524788 0.003956809 0.029816108 0.35986263 0.28817597 0.15343794 -0.097913876 0.0039020653 -0.120395966 -0.08829768 -0.025641717 0.06683834 -0.1276388 0.37055355 0.2788175 -0.16254063 0.045616433 0.04905423 0.16404991 -0.09948467 0.2474117 -0.3214625 0.010011599 0.084437
91 -0.09739431 0.012647539 0.039660744 0.31479713 -0.009130013 -0.09058038 -0.1837372 0.35991445 -0.15836957 0.3074154 0.025501478 -0.04728684 0.32468027 0.3666156 0.030479318 0.08775951 -0.56940967 -0.033653848 0.49613374 -0.32498485 0.16392569 0.2939204 -0.02546226 0.2922136 0.25356874 0.04518433 0.11569648 -0.67902386 -0.19457705 0.1243832 0.48785204 -0.052221324 -0.0876884 -0.257748 0.4410544 -0.16808903 -0.23430005 0.19756073 -0.28398293 0.008849275 -0.40239415 -0.11497355 0.29494548 0.23667186 0.06771385 0.019774707 -0.35533994 -0.098212264 -0.07605138 0.31154817 0.29855192 -0.15369135 0.038348615 -0.49072522 0.239205 -0.24158356 0.45059127 0.34144196 -0.19706748 0.17880352 -0.10273937 0.29598638 -0.10125454 0.32000306
1375 -0.26342955 0.061433874 0.044179566 0.27056906 -0.83250445 0.11685348 -0.23388806 -0.03368489 -0.5184904 0.26441026 -0.24128775 0.0644967 0.41995314 0.26968285 0.42624462 0.10547491 -0.36558428 0.11612035 0.20198184 0.43464416 0.14102507 -0.0072648632 0.19273648 -0.1124723 0.23725557 -0.15214914 -0.24070372 -0.3602143 -0.053699005 -0.04525625 0.038037006 0.06963676 -0.32312736 -0.3006449 0.29707783 0.40217125 -0.013208038 0.13316548 -0.43282256 -0.24547103 -0.54984736 0.04382766 -0.039233454 0.23503232 -0.2212448 0.5533236 -0.075087056 -0.04362549 0.16249873 0.14712122 0.32608458 -0.34414235 0.13941275 -0.13293372 0.21633363 -0.11420575 0.22641672 -0.24038273 -0.16762428 0.31000698 -0.10160161 0.090859756 -0.22193095 0.661037
991 0.19555089 0.53379804 0.38669044 -0.06369756 -0.0026618037 -0.104838125 0.35816854 0.17565264 0.15198559 0.13148892 -0.2337875 -0.09416447 0.31157207 0.039868213 0.059988473 0.15782462 0.12094199 -0.23573281 0.06550507 0.0370848 -0.030556804 -0.014602093 0.36523318 0.06056755 -0.52610874 0.5681184 -0.1838773 -0.19532329 -0.17355815 0.10294745 0.07505016 0.33575565 0.14423689 0.17018114 0.44265532 -0.4630382 -0.034516484 0.08721377 -0.2677549 -0.34680775 -0.09509944 0.09697064 0.053454403 0.4740694 -0.04703715 0.107403114 0.032070413 -0.45016596 -0.09310904 0.46076792 0.24212065 -0.48172536 -0.19643149 0.29976925 -0.19535258 0.029426232 -0.039639052 0.10522631 0.22459164 0.20822413 0.5193002 0.15341567 -0.65830976 -0.1559343
833 -0.0788311 -0.12417568 0.33861634 -0.106920354 0.0411782 0.1023258 -0.023733193 -0.36553597 -0.18025945 0.045040328 -0.095892094 0.18649124 0.3687434 -0.15958798 -0.117058665 -0.010279355 0.19675516 0.060016587 -0.33837342 0.16872084 0.45910642 -0.25727263 0.07269981 0.34607053 -0.44390216 -0.17351569 -0.12096743 -0.4492583 -0.0033133582 0.35827455 0.1742003 -0.3073408 -0.20693515 -0.09843544 0.047996704 -0.47018924 0.30010775 -0.10037244 -0.48730227 -0.49324703 0.16714154 0.3552963 -0.54659647 0.11383505 0.30304277 0.022886919 -0.4583895 0.06489309 -0.4129252 0.07639616 -0.08113539 -0.4975656 -0.20838362 -0.15960552 0.14237794 -0.22947899 0.20739605 0.022959027 0.079979494 0.8586342 0.0831838 0.11684747 0.14481795 0.06639658
3762 0.28107193 -0.016248958 0.020583186 0.34649032 0.23618148 0.22075821 -0.005504089 -0.065796696 0.16833927 -0.44993812 -0.34643427 0.008476468 -0.3551 0.44255394 0.39401957 0.5527246 -0.44393364 0.07825196 0.32463083 -0.52979904 -0.26711515 0.33796048 -0.59300524 0.31345952 -0.24894089 -0.16345449 -0.121923074 0.04278121 0.012388093 0.4032064 -0.14462557 0.00361879 -0.025821112 -0.41440532 0.47258985 -0.25732857 -0.05694021 -0.04875279 0.037007313 -0.23005356 -0.3291228 -0.10730942 -0.23019487 0.16660647 0.31214103 0.21073171 -0.0056396327 -0.36994904 -0.12886037 0.47671813 0.3261044 0.057150815 -0.48618713 -0.004747622 0.35160896 -0.16070159 0.8472641 0.109503865 -0.5566999 0.13384044 -0.08758638 0.0898757 -0.042794704 0.10214588
821 0.20761412 0.61210454 0.36911312 -0.25760883 -0.34202805 0.014326453 -0.08758173 0.14105992 -0.35221156 0.019232094 -0.111275844 -0.40139592 -0.3955071 0.0031083634 -0.011812009 0.20309967 0.02135258 -0.024402112 0.07691539 -0.23057613 0.6826447 -0.17311625 0.15110326 0.14383985 0.42770737 0.35579166 -0.17840499 -0.14096561 0.45297435 0.34062785 -0.6596416 -0.22608107 0.14700778 -0.031378485 0.029473657 -0.23457111 0.60205734 -0.061827783 0.24406616 0.084284775 -0.076431744 0.059485625 -0.12959836 0.47064245 0.20825973 0.1412979 -0.023877883 -0.09534819 0.19039685 -0.30362546 0.3439039 0.09573003 -0.04650751 0.2796228 0.593426 -0.91536224 0.13849163 0.13617551 0.16567664 0.319726 0.03859671 0.13259083 -0.05534993 0.2860885
1991 -0.2204934 0.36131003 0.41305894 0.4233565 -0.17894197 0.27878803 -0.19940804 0.19694157 0.35278654 0.17322262 -0.32315943 0.05731561 0.24714224 0.51155883 0.09086608 0.47291452 0.036817215 0.3020675 0.25202787 0.011264454 0.13962033 0.48345366 -0.33881554 -0.071644515 0.107763045 0.022497607 0.32643783 -0.6915781 -0.04308321 0.094339564 0.31248412 -0.015497775 -0.26577625 -0.01850606 0.4475108 -0.053362362 -0.24780123 0.66385484 -0.44513634 -0.11786957 -0.7228751 -0.014375999 0.12402761 0.14476511 0.21394512 0.013536676 -0.7963335 -0.13270289 -0.094978526 0.2856285 0.21782263 0.2708722 0.19375692 -0.6404688 0.44156536 -0.36422867 0.15513378 0.46717024 -0.05276177 0.17802843 -0.14481696 0.27719027 -0.45848367 0.25481114
993 0.07575852 0.214467 0.20646739 0.4384575 -0.027047392 -0.116155736 -0.018510956 0.14632197 0.0037791312 0.2651605 -0.1521277 -0.13487735 0.19380088 0.47086322 0.049409892 0.32945916 -0.48576093 -0.06271009 0.2767553 0.08931664 0.10225617 0.17483431 -0.18272042 -0.10977504 0.33552015 0.12741229 0.10161608 -0.67716795 -0.02343338 0.25303587 0.6841514 -0.10096995 -0.057614323 -0.31958315 0.8023923 -0.009613499 -0.21560241 0.46206716 -0.23677549 -0.06350266 -0.7323395 -0.43801206 0.21356636 0.29453436 0.34740257 0.22704543 -0.6290679 0.17418619 -0.3380583 0.315552 0.23659962 0.17667617 -0.080516376 -0.702034 0.24802168 -0.038094655 0.19202243 0.35943902 -0.28031528 0.41325384 -0.09389549 0.48718882 -0.16200963 0.5541496
1323 0.33284134 0.70501333 0.20177566 -0.40096474 -0.3195418 -0.07105846 0.20901124 0.19067869 -0.0569451 -0.39824477 -0.012285957 -0.2401915 0.28763136 0.29201958 -0.010407836 0.27607572 0.05976659 0.079600334 0.14380816 -0.090795 0.3867508 0.27569252 0.10826815 0.03434816 0.025099544 -0.32856137 0.16024691 0.33884627 -0.076849945 0.40199706 -0.33447254 0.3808721 0.028270999 0.17518903 0.43600315 -0.2966363 0.09949009 -0.16884544 -0.5711152 -0.2617589 0.20910773 0.16932009 0.32464334 0.54556704 0.13650398 0.19666821 -0.11891993 -0.1810822 0.30693918 0.27915248 -0.68682665 -0.43108886 -0.1807408 -0.47751582 0.2099023 0.14676316 -0.007761345 -0.058311995 0.5634714 -0.024685416 0.08638858 0.30479857 0.16675484 0.21826215
81 -0.033132445 -0.05955074 -0.0060190037 -0.3256707 -0.044756044 -0.10585677 -0.10840765 0.7786131 -0.10898791 0.3461167 -0.5400512 -0.5800682 -0.11819756 -0.10405675 -0.27885726 0.42108348 0.07843934 -0.32777303 0.82973534 0.102828555 0.38500234 -0.13305157 0.10261102 0.3107751 0.16079669 -0.18825126 -0.017883534 -0.026396463 -0.08685675 0.28747436 -0.13431759 -0.09557362 -0.3690876 -0.22698273 -0.027878508 -0.3539472 0.44962707 -0.20014556 -0.60705686 -0.09834555 -0.26407892 -0.17100465 -0.54688305 0.56360316 0.2617207 -0.12670352 -0.016679864 -0.10372868 -0.2240005 0.04337544 -0.15738314 -0.26671943 0.22362976 0.40560767 0.14149496 -0.5507836 0.10165791 0.16417243 -0.19309661 -0.42625216 0.23835823 -0.26893017 -0.050695486 0.13364972
953 0.21997117 0.39859718 -0.05585495 -0.51873475 -0.33875927 0.17714548 -0.06160212 -0.4250834 -0.15769373 0.39199734 0.33785355 -0.6586401 -0.12957312 -0.27524608 -0.46047556 0.40377238 0.074555226 0.149535 0.053519085 0.22832257 0.4564072 -0.14782302 -0.015311992 -0.29328468 -0.22247979 0.32307705 -0.2509424 0.08809167 0.12212886 0.47848052 0.010751982 -0.6316088 -0.27616718 -0.36052158 0.4383431 -0.055295594 -0.08973338 0.02969391 0.1805932 -0.09350711 -0.08001056 -0.24775164 0.08767092 0.36387217 -0.15928675 0.70846486 0.013820283 -0.1295276 0.16153897 -0.029701713 0.21629514 0.08587444 0.17917213 0.057188734 0.1645359 -0.47718054 0.51043206 0.39526948 0.17022377 0.17387274 0.5585742 -0.13865921 0.19270721 -0.32038447
3413 -0.14732654 0.1675003 0.32342452 -0.2853972 0.0107647665 0.16218822 -0.027859908 -0.007190256 -0.07368593 0.05321033 -0.14228372 -0.6052269 -0.3761332 0.53309304 0.10484823 0.32606572 -0.07419743 -0.3003909 0.57373095 -0.33909768 0.18609929 -0.12524755 -0.30562705 0.5047349 -0.33850467 0.32045415 0.49666852 -0.09274696 -0.103640854 0.4645499 -0.5995321 -0.18820733 -0.240805 -0.27364695 -0.3990787 0.5975171 -0.03745071 -0.10764863 -0.21531111 -0.35259777 -0.2548229 -0.39242107 -0.6068791 -0.21335271 -0.026445275 0.616073 0.344646 -0.065285794 -0.6578281 -0.14782296 -0.15441643 -0.104262054 -0.16590847 -0.06387622 -0.015713422 0.20750746 0.12488909 0.54131037 -0.10572377 -0.261218 0.28953892 -0.2879775 -0.10090077 0.2098377
2520 0.03171391 -0.61437297 0.047028497 -0.17857948 -0.26020658 0.003891306 0.03610926 -0.3343463 -0.006176385 -0.09030177 0.41668084 -0.118010506 0.333568 0.5548322 0.15091632 0.11124929 0.1143218 0.14311305 0.59950733 -0.12588297 -0.34955513 0.31039938 -0.31247663 0.071965985 0.27426338 0.30370346 0.102028355 0.14480856 0.2547081 0.15710978 -0.19583513 -0.017006075 -0.2589681 -0.27052346 -0.20856895 0.11786228 0.19784573 -0.16331518 -0.101420656 -0.5903405 -0.099433534 0.24110936 0.29456177 0.026089013 0.55079526 -0.3851516 0.26814157 0.23473895 -0.28463656 0.6012992 0.26114762 -0.046617705 -0.48048362 0.100199826 0.607404 0.011191885 0.40551046 0.4962163 0.5136562 -0.011385032 0.33679888 -0.1889176 -0.4594604 -0.2151217
3616 -0.17280832 0.31626946 -0.2740729 -0.41083923 -0.4143018 -0.037782863 -0.30352175 -0.015812723 -0.11447085 -0.43873492 0.113502644 -0.61360073 -0.4698071 0.4410769 0.2324515 0.049473036 0.11336107 0.24346736 -0.3998815 0.29227465 -0.3825177 0.23003936 -0.44661167 0.16502003 -0.50888693 0.26025224 -0.17883848 -0.55605537 -0.024169525 0.17572103 -0.2263969 -0.6247527 -0.18627907 -0.22099118 0.16825393 0.0008101782 0.13613723 0.14668758 -0.0862327 -0.5341302 0.026119785 -0.31450093 0.114192896 0.19861709 0.15129253 -0.47387674 0.028376684 -0.35792708 -0.284637 0.20000464 0.26618227 -0.121400096 -0.16787766 0.1622907 0.34846503 0.52692294 -0.005916383 0.6327541 -0.6133799 -0.027036795 0.14880961 0.4244711 -0.10330764 0.09531302
2307 0.20762384 -0.07295851 0.037480105 -0.08458848 -0.29015172 0.29740486 -0.2812929 -0.10552095 0.5444819 -0.23769154 0.29179418 -0.5457735 0.031824745 -0.35380906 0.28478152 -0.20603764 0.07091444 0.023782814 0.25290465 -0.25997353 -0.33407012 0.38824165 0.09217994 0.06829909 0.25542954 0.082573734 0.10679595 -0.23005652 0.30591664 -0.36811605 -0.21562293 -0.19804789 -0.29051962 -0.6010544 -0.15996164 -0.1534812 0.007312895 -0.4045543 -0.4403422 -0.60350764 -0.12671344 -0.38149023 0.015174749 0.15547818 0.5911265 0.27379012 0.31141883 -0.31123245 0.04059776 0.26194432 0.47493184 0.27512333 -0.16553983 -0.014121672 0.10793694 0.43227544 -0.11971112 0.40510347 0.6577625 0.57977307 0.050707996 0.1537104 0.46270984 0.3401485
3588 0.21780387 0.20021236 0.18169613 -0.033968456 -0.38467467 0.2719889 -0.0070522088 0.1824656 -0.18288724 0.16076034 0.04349665 -0.25191474 -0.14470595 0.047074858 0.50656724 0.021443592 -0.032353263 -0.35615113 0.008505173 -0.25417936 0.14152767 0.34183058 -0.30825 0.17903508 -0.41402158 -0.023577945 0.24112438 -0.40530786 -0.24335647 -0.52254945 -0.47312722 0.030110965 0.3336218 -0.4332745 0.15926479 -0.3282446 0.054731928 0.31893286 0.20817566 -0.22487016 0.08949885 -0.48579973 -0.20020562 -0.017380815 -0.1764697 -0.13700522 0.3128034 -0.3319874 -1.0043231 0.73324966 0.07689461 -0.40646064 -0.23722115 0.1624763 0.19683725 0.1775456 0.13981871 0.40718606 0.37129918 0.005690049 0.30048105 0.15997893 -0.5674487 -0.12155598
2172 0.24456143 0.23243001 0.10746797 -0.102916196 -0.26802388 0.3334453 0.040157344 0.06896794 -0.20166615 0.19154446 0.034071583 -0.121780515 -0.21872312 -0.051401433 0.6608598 -0.0017329545 -0.07210071 -0.39250928 -0.115332544 -0.1425829 0.10981002 0.30862418 -0.28112918 0.08007648 -0.31861514 -0.019802146 0.18614954 -0.37571818 -0.33873087 -0.4671431 -0.5250958 0.032360375 0.42637017 -0.44735897 0.17498395 -0.15655859 0.19581996 0.3259438 0.23518491 -0.38514447 0.008145095 -0.5647607 -0.115463376 -0.040393524 -0.13957985 -0.056762923 0.13337384 -0.44744155 -0.8811891 0.7373054 0.057511177 -0.49387187 -0.16025174 0.17521173 0.19526094 0.172653 0.17352816 0.28451374 0.44485375 0.16686788 0.2971147 0.2751272 -0.59907424 -0.079828165
963 0.07641482 -0.29160753 -0.09996198 -0.18482761 -0.78216505 0.08186897 0.39766046 -0.3356683 -0.29221103 -0.40180436 -0.09092878 -0.018726252 -0.2715529 0.3582935 0.08425306 0.07506369 -0.59968 -0.1694638 0.09825624 0.6532541 -0.2719473 0.33924273 -0.05349254 0.3769693 -0.069675684 0.10447178 -0.50268716 0.016627394 -0.09368493 0.06908594 0.0144713055 0.23128048 -0.45013726 -1.0369543 -0.028868694 -0.0049497997 0.14213137 -0.36403194 -0.23939528 -0.31994542 -0.2540974 0.04380518 -0.22959317 0.0051884353 0.075281486 0.10954899 0.21848248 -0.06993984 -0.08551644 0.46013513 -0.018067691 0.23082072 0.10776679 0.08463391 0.27124608 0.3072222 -0.23033023 0.67663825 0.28401405 0.35422632 -0.3518009 -0.08914293 -0.29495332 0.17232801
1335 -0.08934541 -0.06705441 0.2728411 -0.36212388 -0.16677952 -0.124952056 -0.40634754 -0.3975217 -0.27376652 0.15487818 -0.39059955 0.13657495 0.31137058 -0.09664275 0.072538406 -0.102550305 0.31899494 0.09878678 -0.2779634 0.22227167 0.30015084 -0.2762233 0.020392604 0.1033138 -0.6302178 -0.345078 -0.037940394 -0.5605194 -0.04385775 0.5434007 -0.063724 -0.5013275 -0.09608905 -0.13455889 0.005228597 -0.41595408 0.39657664 0.029087914 -0.40657324 -0.28341553 0.70453334 0.3854709 -0.37961134 -0.25204524 0.5382375 0.53858787 -0.7742805 -0.080198035 -0.38674366 0.40823448 -0.029798476 -0.11455411 -0.28590304 -0.25881594 0.23949952 -0.47462958 0.38826615 -0.049219586 0.17350149 0.5965989 0.026788447 -0.26894972 0.19802329 -0.1410021
1621 -0.015275718 0.11999668 0.013039119 -0.7113894 -0.11044247 0.44154188 -0.3828191 -0.22173588 -0.59927386 0.022874283 0.032537792 -0.047424894 -0.027616533 -0.11432716 -0.4938127 -0.27426574 -0.17875214 0.28124413 0.5258883 -0.077399224 -0.017080404 0.22448212 0.47594345 0.12561384 -0.5340422 0.20780733 0.12713063 0.45643097 0.20229435 0.33386314 -0.19511782 -0.072203115 0.35566592 0.31251356 -0.037649687 -0.4361041 -0.02289056 0.43578658 -0.80960274 -0.07750276 -0.13232654 -0.10287379 0.29744443 -0.17280114 0.129266 0.2705068 -0.29537496 0.18882816 -0.024688471 0.28532398 0.066170916 -0.18575814 0.08390002 0.4076322 0.0022109852 0.10543953 0.36652166 0.19431117 0.33353645 0.14484851 -0.42201433 0.3001279 -0.28738555 0.29845336
975 0.23169197 -0.24344775 -0.0785186 -0.15450372 -0.72483915 -0.0677528 0.41763136 -0.17688876 -0.41072077 -0.4842071 0.016909534 0.04210626 -0.14103353 0.24397859 0.22587746 0.14741023 -0.65334386 -0.16289958 0.113862574 0.666316 -0.17163032 0.23645334 -0.24875227 0.28023344 -0.15200189 0.08037174 -0.56312937 0.02071143 -0.21788485 -0.0017930984 -0.02218412 0.27517703 -0.39680147 -1.0883136 -0.007086241 0.16334105 0.23716322 -0.2956579 -0.27150667 -0.29344967 -0.21098208 0.020643886 -0.24018283 0.032452226 0.18156119 0.2219578 0.08779463 -0.18633635 -0.020823054 0.50476545 0.24452677 0.26018462 0.21875075 0.108288676 0.18860474 0.19178404 -0.02895155 0.74994755 0.20255841 0.16177154 -0.37780878 0.05810921 -0.2525841 0.16147372
1562 0.38322848 0.5244501 0.105103105 -0.19678856 -0.40527332 0.47346422 -0.09601657 -0.5341148 0.148696 0.265998 -0.101699494 -0.083322294 0.47158998 0.44231722 -0.21048556 0.31719106 -0.27595684 -0.1765712 0.30496806 0.025198463 0.050665963 0.41435504 0.19950533 -0.092605196 -0.32568038 0.3140015 0.24068022 0.43615824 0.17558968 -0.18478008 0.18239185 -0.10895849 -0.12453153 0.66267073 -0.14949197 -0.78060615 0.39607272 -0.16939548 -0.4431738 -0.051769342 0.03451211 0.17971413 -0.20453085 0.14342181 0.029823385 -0.059873145 -0.27539873 -0.075403854 -0.40937278 -0.21939735 -0.47489417 0.14950092 0.4274055 -0.15270677 0.94141394 -0.1163786 0.10025443 0.051012546 -0.21826264 0.20851007 0.43352634 -0.03572353 -0.13208489 0.5403104
695 0.2342234 -0.33334747 0.26477486 -0.13215683 0.14792679 0.26357016 0.30416068 0.6351191 -0.46308586 0.96702033 0.60189044 -0.043859787 0.22611347 -0.034282662 -0.23466821 0.38074794 0.14943862 -0.3492916 -0.022268543 0.25164178 -0.09419743 0.058132414 -0.2141644 0.28264838 -0.101356156 0.008404307 -0.051626265 -0.22465564 0.23153354 0.3245422 -0.24126562 -0.14453886 -0.09809391 0.19786495 0.12238545 -0.33803722 0.29961666 -0.3315525 -0.17308053 -0.65784925 0.20127541 0.1779423 0.058786735 0.32874274 0.19226971 0.83424366 0.34898338 0.49141046 0.24786134 0.70031935 0.085599296 -0.15347728 0.1831577 -0.41286027 0.3388324 0.059211094 -0.13107635 -0.051386803 -0.3172406 0.21421543 -0.17890534 0.13518645 0.040909804 0.08502309
1594 -0.008718474 0.020904046 0.029206825 0.041590285 0.04866914 0.4518206 0.05761293 0.32254732 -0.21852468 0.7180719 0.13257818 0.28134212 0.50807804 0.06653902 -0.13671836 0.42082584 0.44187933 -0.51812756 -0.2969213 -0.07159615 0.4391267 0.5170175 -0.20855547 0.2194165 -0.18923272 0.25778937 -0.28602055 -0.066027716 0.4939832 0.22609006 -0.3827898 0.00029657036 -0.16842902 0.2217552 -0.03422177 -0.19747835 -0.20463291 -0.3889256 -0.7379613 -0.22621055 0.20786421 -0.22306776 0.09177312 0.30273145 0.43320915 0.6721384 -0.028027017 0.16932757 0.36206332 0.46197614 0.10997368 -0.042792868 0.11013319 0.06329728 0.5829831 0.48391303 -0.22358805 0.0024968428 -0.080896914 -0.14555715 -0.379203 -0.12015134 -0.48043358 -0.14667188
3513 -0.08140117 0.43844306 -0.22208732 -0.3944697 -0.3477571 -0.27984667 0.06315755 0.19824155 -0.12100659 -0.5107232 0.573265 -0.31032372 0.46686435 0.65848 -0.21469288 0.06711483 -0.15614952 0.27316022 0.624233 -0.2767991 -0.08276675 -0.25253716 -0.6504699 0.39774063 0.27818984 0.06580151 0.115068905 0.34168854 0.26404324 -0.18904056 -0.44971997 0.54794997 -0.18822426 -0.3650565 0.10946021 0.16840671 0.46611053 -0.25329602 -0.25255537 -0.40873206 0.39272004 -0.45269135 -0.1383564 0.44580367 -0.011554169 0.09936454 -0.22191148 -0.3791686 -0.39281964 0.33206072 0.019132506 -0.19522043 0.13884789 -0.29375622 0.012497739 0.060526133 0.5566987 0.024482666 0.27834395 0.36424115 -0.33189094 0.4188098 0.25348553 -0.36930144
2538 -0.29083616 0.40270823 -0.042388026 -0.030489836 -0.3541701 0.42759442 0.019124288 -0.031611513 -0.20296782 -0.08343139 0.0028875566 -0.37895024 -0.36846885 0.5545403 -0.56717443 0.03787208 0.003815641 -0.4333748 0.18011762 -0.08647499 -0.13606876 0.29259008 0.42212257 0.13723342 0.19311595 0.6402722 0.23483548 -0.119221814 -0.73709637 0.523563 -0.3155143 -0.32000807 0.18681616 -0.3337009 -0.45502183 -0.0139794955 0.57951915 -0.59809506 0.33271518 -0.09476104 -0.09057465 -0.7082936 -0.3328487 -0.13993275 -0.111739315 0.16900466 -0.3912893 -0.1686105 0.080916904 0.6376218 0.42209122 0.30473644 -0.63921785 -0.20165774 0.37353545 0.17651516 0.029996915 0.25283998 0.13884433 0.32040703 0.18817206 0.10319577 0.4412746 -0.13894504
1688 -0.088784106 0.030113393 0.35631776 0.056487065 -0.7452605 0.12676573 0.2006219 -0.4849441 -0.4311587 -0.13556585 -0.24206051 -0.06638475 0.16996822 0.07847068 -0.47248688 0.1103104 0.43399265 -0.4990888 0.047922768 -0.06327418 0.38297325 0.33242452 0.4095134 0.57183933 0.3280549 0.42906433 0.11707929 -0.46643052 -0.095234685 0.3616236 -0.03296837 0.09886324 0.1023905 -0.0042034085 -0.38672838 -0.3054525 0.34823203 -0.14000583 0.22971226 -0.34893548 0.030354282 -0.43113264 0.83688664 0.26599318 0.17700084 0.41511962 -0.32664052 -0.55157787 -0.17765866 -0.16986145 -0.089881144 0.046187345 -0.05606959 0.48454022 0.3627745 -0.5140364 0.40785822 -0.37897372 0.002562497 -0.18125513 0.025161829 0.4258918 0.05458223 0.19185627
2251 0.32270175 -0.7528926 0.16706811 0.1725294 -0.3774314 0.23256369 0.20945454 -0.040234532 -0.15723115 -0.28491554 0.36195374 -0.7820123 0.5100994 -0.019370543 0.19720258 -0.18899801 0.086170346 0.31012452 0.010357983 -0.08039014 -0.60363805 0.48318103 -0.06903247 -0.14764841 0.19193175 -0.043763276 0.65731776 -0.1713659 0.45385787 0.042255275 -0.17096241 -0.021593045 -0.066774756 -0.15718977 -0.11024964 0.19406402 0.4588907 -0.33655864 -0.3291233 -0.655803 -0.03465776 0.060142025 -0.0017252846 0.24221732 0.8909227 0.1903435 0.30025712 0.117516994 -0.2834554 0.46349567 0.9638721 0.15430586 0.02421309 0.07872769 0.32331997 0.34742385 0.39512852 0.3729094 0.55320877 0.16327557 0.28133872 -0.0060113207 0.040486027 -0.074579015
3754 -0.4115761 -0.09785838 -0.0010011452 -0.440392 -0.16598563 0.53391093 -0.22238997 -0.1149181 -0.09281938 -0.6740809 -0.03532124 -0.18836226 -0.083524615 -0.29675037 0.5376246 0.4672833 -0.28696108 -0.35277689 0.33762947 0.22337547 -0.12312091 -0.38813207 -0.8057919 0.051866736 -0.03332733 0.499102 0.20700008 -0.11796872 -0.48153192 0.037671007 0.16988657 -0.16881971 -0.120736316 -0.06997901 0.3104295 -0.48255235 0.32698694 0.12620859 -0.038982734 -0.37713328 -0.21691382 0.1547572 0.17215721 0.51528805 -0.25303838 0.095698595 0.10774535 0.092400074 -0.33958557 0.5274851 0.15304746 0.21847886 -0.3387564 0.07981986 0.32969987 0.25363612 0.1185258 0.3602691 0.6547696 0.02950899 -0.47154355 -0.24584883 0.71511734 0.10285471
854 0.21446574 0.5566602 0.13020785 -0.4775185 -0.4031173 -0.3726643 -0.03526475 0.0063986555 -0.06232795 0.08657205 -0.03193561 -0.29495037 -0.07485816 -0.28043234 0.04885809 -0.3106453 -0.13780808 -0.2963463 0.47044244 0.034557667 0.4976564 0.27720284 0.21369419 -0.15177435 -0.797243 0.83926374 -0.04333566 -0.36801368 -0.2836448 0.12115129 0.10300239 0.13812311 -0.22032027 0.8729003 0.42258456 0.16173482 -0.19724868 -0.31682765 -0.39988834 -0.31893396 0.09323133 -0.16963565 -0.14830029 0.09652056 0.43506038 0.06811571 0.15072991 -0.30459931 0.25947928 0.5931016 0.53353876 -0.11574619 0.42046022 0.044590984 -0.030631298 -0.025888285 0.25245896 -0.43833685 0.18722236 -0.100474976 0.00042313788 0.26739264 -0.54244196 0.12568997
2785 -0.38024923 0.2202098 -0.3155047 -0.43689963 0.0031763061 0.3361036 -0.028883819 -0.36281177 0.69989556 -0.33168778 0.34247535 -0.37648293 0.1552565 0.4910735 -0.201792 0.0678744 -0.3368305 0.023765417 -0.29998237 -0.5451865 -0.16268826 -0.17570084 -0.2623755 0.52249694 -0.31733826 0.3297878 0.005082499 -0.42440292 0.21718371 0.22369698 0.3155191 0.4347335 -0.31019822 -0.50630134 0.46444333 0.004777756 0.89798635 -0.017364737 0.11082402 -0.1641447 -0.25062543 -0.12211391 0.016751343 -0.02354839 0.37935823 0.39842993 -0.024951117 0.15827027 -0.3704178 0.56266797 -0.00019187653 -0.2842057 -0.11219297 0.674986 0.17559986 -0.06674361 -0.03703318 -0.06891825 0.38633472 -0.083616115 -0.11105047 -0.11980282 0.10367309 0.14806496
2440 -0.09017567 -0.13164523 0.014102722 -0.57980186 0.12528296 0.37043756 0.31877086 -0.13146071 -0.257388 -0.6231519 0.115162134 0.011432567 0.3680826 -0.17420226 0.06708135 -0.18288824 -0.06500437 -0.14085728 -0.44734806 -0.13949347 0.17938268 -0.6149523 -0.015896313 0.16366327 -0.5302853 -0.5169917 0.1968654 -0.68499506 -0.07500386 -0.1646705 -0.5482699 -0.29838693 -1.0857097 -0.23359455 0.05279721 -0.26018575 0.2549348 -0.14005163 -0.29197407 -0.77874345 -0.5590429 -0.23549382 -0.6052883 -0.40512064 0.17817004 -0.2539701 -0.42695475 -0.012298537 -0.16919161 0.13372849 0.053044777 -0.066152036 -0.50677043 -0.15469083 0.3089528 -0.33424622 0.33209997 0.30457312 0.2795651 0.27474722 0.17685184 0.31831074 -0.14072768 -0.43828902
2918 -0.48568425 0.3783477 -0.18254562 0.0033045034 -0.3529245 0.61325634 -0.16711028 -0.09186933 0.5247246 -0.32841805 0.74881846 -0.42871243 0.1526082 0.5958804 -0.1216474 -0.19372593 -0.5618306 0.07577518 0.059959263 -0.22894688 0.018471869 -0.08295558 -0.28162113 0.26609182 -0.38538677 0.31656775 0.27855852 -0.4049856 0.17146197 0.09634991 0.3614625 0.33780867 -0.36775345 -0.45172724 0.29895195 0.27175224 0.8554606 0.008192204 -0.0006349223 0.06363109 0.09027576 -0.02956335 -0.018630745 0.101599574 0.23818131 0.4199593 0.14017442 0.16059995 -0.44321117 0.7168648 -0.019081509 -0.4107148 0.058133293 0.6982485 0.27379987 -0.16058633 0.05240617 -0.09750438 0.36795035 -0.17757319 -0.25659442 0.03660586 0.4423664 0.15121904
1653 -0.1627097 0.012870254 0.31676105 -0.05635884 -1.4767636 -0.11200442 0.012448743 -0.20296226 -0.5549537 0.9006852 -0.42995247 -0.34273756 0.6535179 -0.18537842 0.11831201 0.25972554 -0.039154917 -0.3762273 -0.010995379 -0.22776845 -0.44433415 0.13132845 0.08805074 -0.044172432 -0.21703573 -0.29077524 -0.010956381 0.20234911 0.10011627 0.5890558 0.071937785 0.22662969 -0.48637903 0.39283675 0.1595938 0.30047643 0.020917708 0.5237096 -0.48789188 0.30719072 -0.46363333 0.05070577 -0.69908845 0.07629082 -0.108401954 0.28524143 -0.033200063 -0.3648837 0.24558176 0.3270939 -0.16730832 -0.32222605 -0.26969337 0.27457568 0.3495319 0.1064132 0.03332553 -0.14413281 0.14219022 0.1516116 -0.13234226 0.38763782 0.046752054 0.31920364
2553 0.35565504 -0.065872304 0.070621066 0.16716355 -0.2863866 0.2588221 -0.24696365 -0.18893217 0.2437759 -0.46319664 -0.1757316 -0.9496213 0.4556208 -0.09825536 0.3082027 -0.3416894 0.08308755 -0.20567863 -0.09640694 -0.5409093 -0.19994241 0.2863685 0.33176902 0.14071897 0.38670883 -0.0046806256 0.48696032 -0.0783638 0.23591684 -0.1503109 -0.24569845 -0.52677584 -0.13388674 -0.64096725 -0.021361021 -0.39584485 0.039970707 -0.5417068 -0.50758743 -0.5505618 -0.08367811 -0.050656676 -0.041755125 0.29872853 0.7086662 0.53410494 0.52183783 -0.2395572 -0.042791575 0.35749826 0.7197563 -0.017243095 0.063616104 -0.15927707 -0.22487494 0.43159205 0.040028863 0.25834617 0.3179791 0.48438668 -0.08524823 0.260666 0.62359434 0.32050154
2452 -0.6901537 -0.050016854 -0.1829927 -0.23481156 -0.11401721 0.5362535 -0.37217897 -0.07165814 -0.057859283 -0.5282414 -0.061449483 -0.04793733 0.23595086 -0.102839746 0.61508507 0.49531245 -0.23551519 -0.5158248 0.63786644 0.26577523 0.03191941 -0.30439553 -0.72953767 0.30104542 -0.21215434 0.49881086 0.4560367 -0.06632751 -0.38409245 0.13830927 0.11208001 -0.17485112 -0.13596006 0.10037471 0.054428723 -0.4771541 0.42333543 0.1533866 -0.012383815 -0.20640907 -0.20702244 0.091764964 0.29762176 0.761555 -0.16556314 0.09482747 0.11848112 -0.03233033 -0.36607322 0.2925603 0.3113893 0.20433834 -0.54706043 0.08766859 0.23215188 0.4938574 0.063460544 0.2785587 0.6528826 0.10625155 -0.32374597 -0.03966038 0.72508526 0.21952866
217 0.3556391 0.20325568 0.57020533 -0.38960215 -0.80147916 -0.30512875 -0.71194255 -0.1639105 -0.52232105 0.6164822 0.27394655 0.24475038 0.47751364 0.65843105 -0.25878435 0.2490965 0.3317952 -0.55962676 0.18828791 0.2905833 -0.15352349 -0.32595837 0.3341167 0.26442724 0.1749196 -0.38849533 -0.26651725 0.29394564 0.11244386 0.2780587 0.21291752 0.040780533 -0.3664964 0.39986548 0.26759166 -0.37149653 -0.031549945 0.35158485 -0.25929114 -0.4504629 -0.54154944 -0.066275544 -0.60084033 0.13012333 0.075191036 0.8755568 0.2203634 -0.086313196 0.08986462 0.60119754 0.24663499 0.16545555 -0.43157458 0.20023382 0.2880942 0.14893796 -0.06528973 -0.24228495 -0.19925651 -0.28284457 -0.15858743 0.23484494 0.35624966 0.061975263
1047 0.44209376 0.13520378 0.125395 0.09456843 -0.70995444 -0.1344958 -0.1413009 0.28544647 0.10882468 -0.33222649 -0.20882154 -0.6333412 0.48673272 -0.0640764 0.34714985 -0.7469739 0.33499837 -0.1635522 -0.24541062 -0.17226192 0.11313203 0.16144702 -0.2501872 -0.18117917 -0.2293468 0.116068736 0.2821833 -0.622419 0.34506667 -0.32029456 -0.6654582 -0.07361114 0.3480214 -0.24421756 -0.27356467 -0.70681715 0.024697596 0.081468664 0.15517095 -0.3711975 -0.59506595 -0.7867709 0.06504234 0.2727787 0.5495764 0.46473387 0.62638223 -0.42205697 -0.61684376 1.0868876 0.40320545 0.20236057 0.33925748 -0.2005464 -0.24423157 0.40947288 -0.08121415 0.34992427 0.3046695 0.5225294 0.8031362 -0.013201072 0.029510248 -0.011447896
1388 0.43475685 0.09665343 -0.13395457 -0.27611777 -0.217038 -0.5935607 -0.1702576 0.24070533 -0.20632958 0.8329478 -0.98079014 0.12000754 -0.37909883 -0.12394907 -0.17647175 0.24451384 0.025453238 -0.17748049 0.031877413 -0.11543352 0.18813546 0.08861398 -0.24697916 -0.008657436 0.18906008 0.13967347 0.094765306 -0.25593048 0.6249581 0.32541373 -0.30727512 -0.1530864 -0.7772768 -0.09750583 -0.049838047 -0.25099623 0.9719196 -0.17449161 -0.6333385 0.23570417 -0.22785707 -0.37737077 -0.20449243 0.8774435 0.6306457 -0.0572327 -0.62055236 0.3630283 -0.39620936 0.09543998 0.0009998764 0.1201564 -0.28930888 0.5581812 0.026972461 -0.002351342 -0.22496155 0.17460498 0.27252775 -0.71484774 0.37819895 0.31321186 0.12802328 -0.01735436
2285 -0.59910357 0.5964088 -0.28425053 -0.3267346 -0.38684878 0.8431392 -0.004305269 0.067418925 0.6708252 0.016407996 0.820992 -0.63360745 -0.14570312 0.520959 -0.05905 -0.1819625 -0.52950835 -0.19468503 -0.3420017 -0.29965082 0.20616505 -0.53164434 -0.23588729 -0.020329969 -0.3632621 0.5002478 0.2983698 -0.40332615 0.2862107 0.5493219 0.20292887 0.66897595 -0.44796318 -0.6439252 -0.02461099 -0.12926401 1.0161078 0.032334745 0.05687657 0.36935723 0.031625338 0.16607048 0.009733933 -0.050971873 -0.15302227 0.26914787 0.15050653 0.28350407 -0.85442984 1.1126165 0.12717026 -0.08181798 0.1420554 0.25289604 0.08769074 0.35193628 0.33998206 0.10456074 0.36372077 -0.10880806 -0.3654835 -0.09314975 0.28716174 0.4976819
1574 0.047739394 -0.022331374 0.060209032 -0.5275543 -0.7218827 0.31198755 -0.13504699 -0.40122238 -0.19935927 0.18166123 -0.10809865 -0.42499772 -0.44269836 -0.50842667 -0.39191625 -0.042812448 -0.19718097 0.1879292 0.18065925 0.1192238 0.7450248 0.6770087 0.11695531 0.27329603 -0.32329476 -0.0952318 -0.21523644 -0.20419474 -0.042758796 0.123840004 0.20688973 0.26612946 -0.28063846 0.9894273 0.58405167 -0.21946928 0.27582166 -0.14720163 -0.29818535 -0.37575105 0.25541773 -0.3572081 -0.32939905 0.10541666 0.5138518 -0.45058197 -0.038638487 0.5022679 -0.38238993 0.23205338 0.8577835 -0.26928923 0.23055013 -0.61501455 -0.21462034 0.4470252 0.22524099 -0.47278833 -0.23020642 -0.119969875 -0.16429691 0.12369502 -0.19241431 0.50888896
1637 0.5533449 0.1088967 -0.5002545 -0.42368215 -0.27824813 0.44282013 -0.24611434 0.012413902 -0.5709235 0.26158726 -0.21908991 0.20516974 -0.32660455 -0.15723906 -1.1808511 -0.51766926 -0.31768656 -0.20991424 0.29699245 -0.11482099 -0.6874208 -0.06742289 0.1803298 0.21526025 -0.18118058 0.3258749 0.5661845 -0.2572547 -0.1088557 -0.057610266 -0.31127566 -0.13180941 0.41899976 0.18392682 -0.040435977 -0.38168487 -0.08470376 0.54496104 -0.6135959 -0.27306238 -0.61663187 0.07318619 0.128059 0.14437091 0.22314815 0.43820143 -0.5017935 0.6637288 -0.16201928 0.5568434 -0.3637643 -0.72787035 0.21737082 0.0052981973 -0.19982485 -0.09513744 0.64770144 0.48630548 0.04265216 0.2612925 -0.74462223 0.10891517 -0.17682298 0.31915915
1797 -0.16611518 0.21629123 0.26929995 0.06716591 -0.7328304 0.5555609 0.5418657 -0.2211527 -0.5191993 -0.29155052 -0.3659048 -0.048715472 -0.26680565 -0.101102166 -0.45555192 0.19297315 1.1051593 -0.7332377 -0.2473617 -0.5496047 0.22165842 0.21236287 0.52725303 0.53854984 0.19085747 0.8126849 -0.03332811 -0.31879503 -0.29605648 0.8121105 -0.19810332 0.43706498 -0.40786746 -0.29573393 -0.49379316 -0.3369417 0.16140416 -0.27210146 0.15698364 -0.5482988 -0.0993462 -0.02510549 0.5574479 0.09143803 0.05571594 0.009988883 -0.47713116 -0.22529908 -0.91988564 -0.24200736 0.17092198 0.21426664 -0.011573153 0.13170813 0.42964596 -0.45799118 0.42398295 -0.2775704 -0.09373386 -0.19639972 -0.2613558 0.5589019 -0.0778174 0.4330327
1117 0.6791328 0.44358853 0.18222721 -0.41345137 -0.24788827 0.31647065 -0.25791267 -0.71166193 0.3455783 0.22756204 -0.26109463 0.3331837 0.444016 0.17124726 -0.45261687 0.21243319 -0.23385596 -0.2571444 -0.06802099 -0.36532202 0.33806854 -0.13022202 -0.21160117 0.05632589 -0.3063073 -0.31413108 -0.7460845 0.10575586 -0.4630385 -0.08066762 -0.109978445 -0.17959328 0.27433008 0.6760633 0.06471839 -0.37704566 0.27517587 -0.79270077 -0.34906542 -0.33619326 -0.10557574 0.29577333 0.03376163 0.7439539 -0.00040240676 -0.046845213 -0.1309572 0.07948131 -0.36373016 0.16481075 -0.1995815 -0.14595765 0.68467104 -0.20335723 0.5745224 -0.26788735 0.6155268 0.63856745 0.1921105 -0.13271028 0.41376987 -0.268994 0.1286295 0.9121106
1397 0.30530185 0.3769626 0.25154984 -0.40035668 -0.32546046 0.22401664 -0.015549043 -0.6730393 0.2612017 0.3075049 -0.06798318 0.31934556 0.72526425 -0.0004026071 -0.25702786 0.20312348 -0.3999817 -0.64288735 -0.059724692 -0.24803369 0.21107665 0.033377226 -0.8096087 -0.39595273 -0.36247587 0.14163235 -0.481313 -0.0038472656 -0.33943623 -0.35345548 0.095276564 -0.106231995 0.29351866 0.6901286 -0.0051924097 -0.3793622 0.34469986 -0.48104507 -0.55625063 -0.3377063 -0.0060806894 -0.31498942 0.2500808 0.7389136 0.0011750136 0.2956438 -0.36904314 0.1955995 -0.035123747 -0.20840545 -0.31742257 -0.016654415 0.53177714 0.28142014 0.45592794 -0.028487105 0.5187709 0.71210694 -0.21650882 -0.07307361 0.44960293 0.02061525 0.3640606 0.6270408
1592 -0.13770463 -0.107982606 0.323316 -0.2004388 -0.04961116 -0.33495218 0.23905137 -0.16960025 -0.5525809 0.063947834 -0.00512943 0.038167585 -0.29281375 0.41109195 -0.10881621 0.25066072 0.032310642 0.4285388 0.7145926 -0.28717652 0.1467279 -0.33547476 0.9267264 0.009898612 -0.52426064 0.49765733 -0.5335864 -0.5907747 0.16241999 -0.0940512 -0.63037586 0.1897185 -0.032800503 0.46533936 0.78383493 -0.2975255 -0.27971074 0.1597447 0.5615418 0.2038773 0.28999448 0.39134228 -0.61936146 0.79365784 0.7047245 0.35485455 -0.33891907 0.020911291 -0.20445104 0.207726 0.44912794 -0.49034745 0.52576846 0.27732894 0.9875049 0.29232192 0.02925045 0.12868914 0.0147336135 0.3042122 -0.19978063 -0.3643487 0.34647897 0.34979728
444 0.37631932 0.5185849 -0.19589263 -0.37510777 -0.40757018 0.66238016 0.3229374 -0.5016261 -0.3725301 0.7914515 -0.041087482 -0.02060662 -0.54720545 0.26402825 -0.5669218 0.5780772 0.35362986 -0.3572686 -0.08051486 -0.065105096 0.22162405 -0.08372944 -0.093893655 -0.025733091 0.113216184 -0.11730073 -0.6676095 0.12705253 0.64653414 0.37167737 0.7260736 -0.16874415 -0.44517526 -0.35221 0.33206284 -0.5168506 -0.00048099854 0.44625717 -0.06668027 -0.51602966 0.2675758 -0.30185306 0.06556447 0.5751864 0.099930726 0.52194995 0.3299224 -0.28536192 0.110668585 -0.36819747 0.93581456 -0.2219559 0.0777349 -0.15023288 -0.30072471 -0.23816115 0.6233222 0.4554657 0.9441507 0.2858853 0.6907643 -0.04153145 -0.23924562 -0.5886114
3102 -0.7243462 -0.26536345 -0.5125714 -1.0938196 -0.74320817 0.14288239 -0.40492767 0.02615806 -0.1320598 -0.40767884 0.06841648 -0.52650416 -0.62649757 0.38297436 0.37115306 -0.03001793 -0.19458213 0.25511345 -0.37294772 0.09088202 0.016825818 0.14077483 -0.12314311 -0.028939923 -0.24414907 -0.027023656 -0.011123717 -0.075984634 -0.23043816 0.7011463 0.38966691 -0.35261312 0.2906104 -0.07849501 -0.24195477 -0.3761386 0.052554384 -0.2901994 -0.7672018 -0.24954717 0.049391326 -0.33263257 0.3843236 0.43108624 0.13333385 -0.5645699 0.122241504 -0.49569067 -0.33346877 0.48991153 0.72961915 -0.49060297 0.30270875 -0.24175727 0.44358495 0.5196207 -0.200015 0.32602075 -0.5930404 -0.028033122 0.016604515 0.5582039 -0.1648232 -0.038493123
3306 -0.25225154 -0.64215946 -0.42764455 0.07740406 -0.85006845 0.034440342 0.35573286 -0.3518608 0.046041507 0.15793487 0.13933848 -0.3519612 0.39394596 0.21447621 0.34427315 -0.10981492 0.89723366 0.15514219 -0.108209796 -0.39447865 0.39970386 -0.71087223 0.17349888 0.5218679 -0.3323884 0.58193606 0.5208158 0.10025947 -0.20312618 -0.40499958 0.233872 -0.60869855 0.01891023 -0.6512196 0.77032053 -0.2127387 0.2401321 -0.73712826 -0.32674614 0.049718272 -0.10852818 -0.6790575 -0.30228928 0.14100726 0.4520609 0.25228295 -0.75088066 0.09905907 0.14243615 0.5187708 -0.030831104 0.5111518 -0.238962 0.05519063 0.07404215 0.5383579 0.36149555 0.28017685 -0.12726553 -0.15839525 -0.16230747 -0.30276564 -0.11171006 0.2965288
3276 -0.038729474 0.11457356 0.51790893 0.29521805 -0.31239808 0.3282686 0.12457629 1.0518913 -0.055584896 -0.12365951 -0.249155 0.068753764 0.32120678 -0.43511665 0.34373152 -0.4074813 -0.6962409 0.36718237 -0.12842348 -0.24019054 0.35206547 0.28657216 -0.38415048 0.7755895 -0.076479755 0.6834695 -0.0395393 0.66486055 0.011157862 0.29179806 -0.12928939 -0.526343 -0.27132678 -0.7559852 0.16108309 -0.6963748 -0.6777811 0.18240085 0.18753435 0.03229163 -0.770745 -0.06858078 -0.0084072985 -0.075629056 0.9004525 0.21602187 0.48809326 -0.19944654 -1.0798981 0.96982425 0.047308467 -0.28357458 0.009564844 -0.33560124 0.1275857 0.24102184 -0.10450946 0.17431746 0.25695825 -0.026626425 0.7921462 0.42900053 0.33836332 0.35941347
2047 0.06596499 -0.15495092 0.48777157 -0.075441584 -0.59136677 0.6777916 0.59525037 -0.33972535 -0.67613965 -0.24597698 -0.3945928 0.26503128 -0.1645275 -0.419575 -0.55818164 -0.16654837 1.2538096 -0.35718998 0.13500266 -0.57627624 -0.17570303 0.39877805 -0.007241278 0.33751878 0.20250984 0.8207994 0.0155323325 -0.46837702 -0.46390364 0.5297131 -0.16833013 0.31333104 -0.30821228 -0.43593255 0.24059345 -0.32281828 0.3718612 -0.27091348 0.44086975 -0.46415225 0.3037366 -0.32003087 0.17296597 0.7948956 0.23849098 0.080174536 -0.25278363 -0.4755095 -0.66665703 -0.10445299 -0.21933518 0.08381962 -0.33430976 0.30852914 0.6408022 -0.68178153 0.2810793 -0.2587603 -0.3299329 -0.24962811 -0.3632582 0.6465194 0.5948852 0.76772493
3263 -0.45729858 0.4571483 -0.41075957 -0.02544157 -0.2661693 0.7960776 -0.13905887 0.10939298 -0.31859335 -0.8059455 0.020109007 0.20618792 0.76352745 -0.3316076 1.0176164 0.569114 0.07063393 -0.54793715 0.82023525 0.06118279 0.029309336 0.019513927 -0.6975791 0.5750852 -0.47541073 0.63245666 0.06262618 -0.15306993 0.08022381 0.35832384 0.0046452717 -0.4592078 -0.4524854 0.5448806 -0.15154602 -0.44216996 0.7935579 0.4665587 -0.18184662 -0.05793264 -0.24162798 0.24292223 0.09540376 0.6641594 -0.44613552 0.29834786 0.19372974 0.46616814 -0.4004139 -0.23510455 0.6499126 0.5271787 -0.24689668 0.093418084 0.25001958 0.7001929 0.5137493 0.4744639 0.8960158 0.5460536 -0.4101171 -0.43050578 0.6573652 0.2328565
2718 0.6858551 -0.37064463 -0.32323712 -1.0697371 -0.3811359 0.6707144 0.03307037 0.05775817 -0.4013144 -0.1667154 0.51118624 -0.0639065 -0.053200234 0.2983978 -0.14477943 0.3388243 -0.51699495 0.33553755 0.2488213 -0.24946071 -0.0054384465 -0.41934133 0.08419547 -0.034955673 -0.8503772 0.45290363 -0.1700536 -0.20701605 0.3021123 0.025330313 -0.3612605 -0.2162496 0.74029803 -0.4677102 -0.55041623 -0.27682686 -0.07874752 0.7807869 -0.92420626 -0.27188876 -0.5057303 -0.15783687 0.13318169 0.22501945 0.21382466 -0.22232018 -0.3605656 0.047978707 0.24010468 0.8458367 0.30372897 0.3383724 0.0122004645 0.052455787 -0.40433854 -0.37742323 0.32321534 -0.060076084 0.04349583 -0.12465626 -0.5378673 0.032580722 0.28687158 0.31308353
1205 -0.34881166 0.08661399 0.041329544 -0.3377973 -1.3723116 0.29972935 -0.71886677 -0.42674994 -0.47368586 1.0694922 -0.4376173 -0.14971021 0.71524376 -0.38506564 0.2677563 0.63414097 0.38129595 -0.15094613 -0.22689031 -0.41673526 -0.7182166 -0.12223727 -0.09320402 -0.1654577 0.4773778 -0.24202093 -0.39444453 0.1330042 -0.11230981 0.5057053 0.036524136 0.44312257 -0.40921536 0.022905637 0.14811897 0.42764884 -0.36314797 0.40291184 -0.057177056 -0.21647538 -0.7239026 0.1657463 -1.1320323 0.43593958 0.30739233 0.6617711 -0.04901307 0.045144714 -0.18147226 0.55543834 -0.21569978 -0.53359264 -0.34345385 0.2051186 0.62401724 0.17269135 -0.12407509 -0.26481035 -0.12484456 -0.008338316 0.022992803 0.47291106 -0.36557177 0.58314526
748 0.23414756 0.7266296 -0.41244695 0.13093524 -0.3570373 0.2693114 -0.3548462 0.16001742 -0.47424763 0.3307753 -0.044410013 0.34102154 -0.3445522 0.004326048 -1.0541912 -0.75835484 0.015744476 -0.32803908 0.8619721 0.34444106 -0.21596497 -0.3325317 0.24154803 -0.54329157 -0.9689969 -0.014974339 0.26933223 0.6321744 0.06888439 0.13766654 0.0003845371 0.14793794 0.17600393 0.52449 0.43323988 -0.6416486 0.101862 0.15603101 -0.39801967 -0.44937968 -0.5641553 -0.2775301 0.2553861 -0.06000535 0.7221678 0.51774055 -0.6268921 0.4691927 -0.45488712 -0.073755704 0.20970072 -0.8542729 0.029036159 0.3023733 0.40299442 0.1390903 0.21297157 0.5830807 0.53001827 0.360764 -0.55699897 0.001228042 -0.32004035 0.26612544
389 -0.10961593 -0.38629106 0.67293614 -0.6504997 0.062433865 -0.2963555 -1.1409056 0.052595936 -0.37149608 0.63790256 0.43321416 0.31242555 0.14675127 0.58697027 -0.41266325 0.35877973 0.54824173 -0.91803133 -0.3112649 0.13019851 0.39578548 0.11465477 0.4235689 0.13314004 -0.19006105 -0.3045295 0.11072656 0.049357682 0.3475252 -0.2290129 -0.45753336 0.38549328 -0.3122974 0.3633111 0.38105354 -0.5458236 0.08580501 -0.12880902 -0.3978418 -0.8541895 -0.31789708 0.2709212 0.006721444 0.6032429 -0.12740883 0.8571095 0.0359801 -0.08737648 -0.008162069 0.7911539 0.16430451 0.56664884 0.19869746 -0.37137917 0.64845765 0.24452758 -0.11050329 -0.038777675 0.011308689 -0.7081819 -0.43943194 0.44450364 0.04952636 -0.16010563
2077 0.8910118 0.6015169 -0.57174927 -0.32797548 -0.35007572 0.33759645 0.40109578 -0.30484885 -0.15993297 0.2350969 -0.40944624 -0.3032357 0.11764938 0.049559303 0.116994135 0.31933907 -0.014574858 0.67223364 0.38453996 0.7263643 -0.23892318 -0.36254302 -0.22414108 0.7304582 -0.119123146 -0.08540264 0.8160454 0.049394093 -0.43966886 -0.10951692 -0.22797519 0.60198295 -0.35148352 0.7442681 -0.027050793 -0.8797414 0.41894677 0.7195349 -0.3094584 -0.05762803 0.051755533 0.4109071 -0.043671165 0.35669002 0.53589976 0.46921337 -0.06755993 -0.33489734 0.13485269 -0.02722987 -0.04146032 -0.058224548 0.63632816 -0.2477478 0.8771687 0.2240223 0.2259284 -0.5941019 -0.12534703 -0.22762477 0.6536858 0.46490726 -0.2607436 0.5647311
1213 1.0202943 0.09426881 0.22833256 -0.7112852 -0.35550883 0.5476368 0.11054226 0.4188008 -0.46064726 -0.46539423 0.008363231 -0.36424416 0.13893314 0.2596403 0.091407314 0.45320135 0.40523773 0.07001579 0.28149533 -0.34053433 -0.09097824 -0.11430854 0.35632652 -0.37088376 -0.58357215 -0.6656481 -0.04783818 -0.19472206 -0.3238231 0.78021586 0.33866593 0.43128997 -0.39792773 0.448064 0.6191392 -0.44445693 -0.28180155 0.15996562 -0.06727852 -0.1500448 0.3764268 0.16387196 0.3736134 0.15053752 0.5821205 0.83245254 -0.28698236 0.22541882 0.5743874 0.06031239 -0.632158 -0.35452506 -0.22197083 -0.18797858 0.32494605 0.62998426 -0.074522965 0.49248722 0.36538863 -0.4876806 0.17589647 0.039302465 0.18323436 0.5890199
592 -0.42951533 -0.095563404 0.06790684 -0.20990594 -1.2585038 0.15481025 -0.92849797 -0.23232062 -0.57141274 0.74675095 -0.16403607 -0.413717 0.8854093 -0.10999748 0.14725685 0.22262189 0.3404761 -0.08877565 -0.0287944 -0.38395384 -0.54166263 -0.28259718 -0.027334116 -0.2739116 0.5071562 -0.24801621 -0.4873266 0.34533715 -0.25158384 0.7367899 0.10542177 0.305928 -0.50158703 0.0322587 0.1348039 -0.028051132 -0.19221942 0.5994226 -0.11373975 -0.18232056 -0.87486947 -0.09029504 -1.3364825 0.5881538 -0.13291958 0.7078751 0.13157718 0.10577052 0.26882523 0.6139709 -0.00040344 -0.56133425 -0.23016606 0.30099827 0.73824114 -0.06229277 -0.097342536 -0.2893805 -0.44776803 0.1885829 0.25187823 0.94987047 -0.3090286 0.675983
390 0.37701127 -0.45728135 0.23168778 -0.029878747 0.19708832 1.1173041 -0.13482106 0.29106906 -0.75219864 0.49140057 0.12560278 -0.477539 0.3263739 -0.14290643 0.06290698 0.06961055 -0.033636775 -0.20238471 -0.22972547 -0.07274131 -0.47098756 -0.13718732 -0.9090915 0.076607905 -0.6278301 0.51123124 -0.32814896 -0.2096096 0.61525756 0.4899771 -0.4530115 0.060214963 -0.65984607 0.74562293 0.44913733 0.003060864 0.025008423 -0.20743191 -0.23272184 -0.10811297 0.6227511 -0.5268493 -0.15073532 0.19381343 -0.0015377108 0.5359676 -0.24000426 -0.30109227 0.4989176 0.20638913 0.060902145 -0.4489017 0.14970031 -0.502982 0.747115 -0.44436654 -0.64959145 0.00027969654 0.16460843 -0.09899684 -0.34491 -0.04777531 -0.16229637 0.39058447
3563 -0.5188559 0.23809831 -0.3943943 -0.023064999 -0.49680972 0.9587604 -0.27596042 -0.021724513 -0.3714222 -0.5043941 -0.17953211 0.09636854 0.68173116 -0.46934155 0.9016047 0.6959388 -0.29308718 -0.87088 0.88247436 -0.07166877 0.15294981 -0.20571046 -0.75728506 0.57028806 -0.3714297 0.45120522 0.26611555 -0.49168593 -0.03789827 0.32268754 0.045523804 -0.32415172 -0.13619708 0.43179965 -0.421115 -0.39429855 0.6280705 0.1832739 -0.053488895 0.021829126 -0.101797156 0.31440306 0.42075375 0.7425213 -0.33223343 0.021878218 -0.057763927 0.41312972 -0.63031065 0.017000623 0.5635032 0.5379922 0.34886634 -0.099446096 0.17864771 0.6848265 0.3124445 0.20510228 0.96403706 0.5121986 -0.39580858 -0.28971648 0.62165314 -0.120376065
3381 0.22694378 -1.0901293 0.6269546 -0.031152809 -0.5228659 0.32821053 0.36323422 0.28640386 -0.49804148 0.21938694 0.99629855 -0.77658856 0.49751446 0.005489156 0.38386452 0.28736874 -0.20301773 0.4306214 -0.23155977 0.81703293 -0.2451836 -0.06413365 -0.26215962 -0.7105872 0.1729454 0.45768118 0.45331475 0.16221586 0.23644046 0.526945 0.23290546 0.09718596 0.3913819 0.048994772 -0.25866827 0.08199799 0.8257093 -0.3897597 -0.14608179 -0.8906437 -0.15280138 0.13374847 0.32374868 0.07795488 0.8700735 -0.10941229 0.040100016 0.43136504 -0.28452843 0.44683033 0.4677053 -0.13002199 -0.35943937 -0.16505486 0.479462 0.20847028 0.76805764 0.5401376 0.43538472 -0.38281667 0.15523358 -0.3863647 -0.30285934 -0.3585696
3250 -0.51293474 -0.55247915 0.33010462 -0.0357784 -1.0667951 0.16696036 0.32709748 -0.60971093 -0.45536426 -0.16944966 -0.7412178 -0.8274051 0.12401177 0.0833018 -0.09066013 -0.48038426 -0.57150733 -0.44756812 0.6875648 0.89064777 0.13290131 0.54865324 -0.73047215 0.1095391 -0.53738314 -0.507637 -0.7881827 -0.22688021 -0.27198616 0.10800173 0.15307821 0.7023015 0.09137436 -1.3509539 -0.0037793044 0.11409955 0.39090568 -0.46350363 -0.34416515 0.100664414 -0.49510977 0.7788443 -0.05452426 0.08421503 0.122574426 0.6351438 0.09500569 0.14406282 0.08934616 0.55800074 0.035524312 0.25214517 0.17118494 -0.0135637345 -0.0048474353 -0.4126138 -0.2878664 0.47785273 0.17981075 0.34551606 -0.50085443 0.6844007 -0.56840384 0.37831843
3323 -0.31315002 -0.6133246 0.035194956 0.15533824 -1.0578775 0.2818617 0.37477815 -0.44695428 -0.7682114 -0.27381414 -0.8537901 -0.51396376 0.10331766 0.44088215 -0.19076067 -0.51813 -0.17975806 -0.5306594 0.32082212 0.8814264 0.4483274 0.6483493 -0.4320022 0.055970438 -0.34144443 -0.3152649 -0.6963267 -0.30118248 -0.18518627 0.014300859 0.079888046 0.36773047 -0.15729514 -1.2065105 0.111713044 -0.05086732 0.83522606 -0.2025437 -0.2530662 0.1105746 -0.65968806 0.59769464 -0.3503952 0.16092873 0.07304296 0.40017536 0.2268539 0.15451705 0.31492832 0.5646875 0.016636688 0.1054987 0.17585361 0.041708585 -0.30604884 -0.041645568 -0.27806935 0.8086588 0.08541741 0.39212877 -0.6173261 0.56902397 -0.65265995 0.70857656
3118 -0.78077036 0.86406213 -0.49564412 -0.5201028 -0.08570648 1.4775002 -0.5530303 0.16059522 0.8858345 -0.19222407 0.46106598 -0.8286372 0.026479937 0.65822864 -0.35305884 -0.060694292 0.050360292 0.028695581 -0.2394627 -0.3255057 0.46595272 0.08428417 -0.3482716 0.12685968 -0.36614272 0.46899086 -0.10501438 -0.7132478 0.6591951 0.10586354 0.1385198 0.55262303 -0.45422885 -0.82005125 -0.009183743 0.34261933 1.1191213 -0.11753002 0.1638544 0.44929028 -0.2103674 0.33944142 -0.120970584 0.016704684 0.34852606 0.07831468 -0.0050163637 0.11022213 -0.5158357 1.1474397 -0.28387988 0.2717967 0.5682885 0.81869525 0.29753646 0.33168623 0.843775 -0.37640822 0.73250496 0.069002956 -0.28730747 -0.24861428 -0.02647367 0.44671002
3804 0.13460547 0.055489033 0.096175775 0.06058707 -0.4733405 0.20947838 0.04746617 0.11215449 0.14407775 0.022684963 -0.15492247 -0.115127094 -0.5677092 0.14683048 0.5214456 0.9367452 -0.5838982 0.05493957 0.033352144 -0.55891937 0.23805007 -0.23939338 -0.38527945 -0.45180145 -1.149651 -0.2523845 0.5061131 -0.046569485 -0.064775236 0.04878683 -0.18032397 0.9225661 0.14348747 -0.8365347 -0.4496227 -0.3736889 -0.20253299 -0.9416059 0.29878208 -0.04771227 -0.8478537 -0.77120644 0.2740021 0.538233 0.4551772 -0.23968236 0.07591808 0.056938853 0.024715427 0.20308426 0.499466 -0.5209685 -0.45739025 0.30105495 0.7221757 -0.06653087 0.48050946 -0.22826703 -0.28224447 0.6413057 -0.3891708 0.29653603 -0.24520461 -0.24198607
2114 0.48687896 0.52027977 0.8210987 -0.09008319 -0.82362014 0.4828745 0.7364368 -0.14830394 -1.4157523 -0.13911085 0.15070932 0.19514243 0.4233996 0.14963628 -0.27562633 -0.082568035 0.3906005 -0.807422 -0.03132567 -0.6381697 0.016080277 0.2559752 0.20598224 0.056779206 -0.016825864 0.7227907 0.08862455 -0.45823076 0.09347978 0.5832956 0.2604985 0.46118012 -0.2554762 -0.52248794 -0.0065120985 -0.114736564 0.025826316 -0.12249887 0.17600268 -0.25012666 0.2846107 -0.38553575 0.13758501 0.69896245 0.6435877 -0.0038715214 -0.2546199 -0.82599753 -0.735455 -1.0639261 -0.06295577 0.25585085 -0.14253911 0.45063877 0.06037347 -0.45331115 0.4736495 -0.46730763 -0.09743879 -0.4942584 -0.46205962 0.78738326 0.15889029 0.7492802
1467 0.11074537 -0.3146222 0.27046677 -0.5257627 -0.19349556 -0.18506268 -0.41398728 -0.07995035 -0.13595033 0.57320714 -0.017020715 0.056331698 0.4854914 0.6740826 -0.01760789 -0.22445095 -0.32054412 0.8439632 0.06790029 -0.48741785 1.0501975 0.47255465 -0.416233 -0.25466144 -0.047450922 -0.38653693 0.16932747 -0.60297316 -0.3633224 0.5085991 0.8173168 -0.399612 -0.17790592 -0.0073901825 -0.57444704 -0.8620492 -0.08385432 0.12009426 -0.1851433 -0.5039678 0.24863276 0.30089572 -0.9200078 0.27783307 0.38521838 0.8756592 -0.72445905 -0.6157247 -0.5625296 0.15316772 -0.7201995 -0.047130603 -0.22153753 0.07983553 0.10695802 -0.24802144 -0.036717907 0.21068771 0.30644596 1.0835404 -0.50301117 -0.102723934 -0.17135936 -0.29160935
446 0.26826683 0.12830675 0.21884519 -0.48327613 -0.46769583 0.087215334 0.15476984 0.38504717 0.35718155 0.13494621 -0.038030546 -0.2717129 -0.548984 -0.01877211 0.44327503 -0.9782985 0.31515774 -0.36732855 0.6430071 0.03032353 0.30863976 0.17273262 0.5760549 -0.3855171 -0.9914513 1.331642 0.10695353 -0.17287312 -0.09175825 0.25221327 0.43263018 0.24938095 -0.61881316 0.9867394 0.12283894 -0.0111246295 -0.33802497 -0.56340414 0.27557406 -0.4291227 -0.2011084 0.43957478 -0.5309621 0.97376 -0.23048213 0.364371 -0.49073622 0.0106337285 -0.17499657 0.78477293 0.20766912 -0.16193467 0.28352457 -0.1117104 -0.07925794 -0.13998973 0.28659326 -0.3629963 0.23561193 0.35026625 0.53866315 0.16552652 -0.716557 0.16803868
2558 -0.13759214 0.03862762 0.29058006 -0.59811234 0.07090793 -0.2926768 -0.048246134 0.78039587 -0.16026233 0.20176902 -0.12670863 -1.067618 -0.2621077 0.32383412 -0.14438443 -0.06553925 0.39990842 -0.67494327 1.2118952 -0.35770652 0.33320493 -0.817534 -0.12512253 0.79233044 -0.49830487 -0.3101942 0.13841474 -0.14870074 -0.21255144 0.43066013 -0.096048184 0.63568157 -0.3579902 -0.37121975 -0.67685753 0.2586778 -0.2637275 0.073020555 -0.9154986 -0.08690629 -0.23300052 -0.53541183 -0.67010546 0.37066802 -0.18675162 0.2975087 0.3065659 -0.14764549 -0.88994914 -0.6008027 0.13026628 0.16823614 -0.08481815 -0.2925084 0.85345757 -0.073864475 0.35374013 0.49261594 -0.09317486 -0.21905634 0.40302408 -0.8787048 -0.12452527 0.48544952
2222 -0.092095084 0.08394194 0.6101537 -0.26443097 -0.17768116 -0.18454441 0.4628126 -0.31233102 0.49966985 0.4480476 -0.18784247 -0.17209938 -0.90054196 0.278532 0.54429334 0.05931531 -0.27645266 -1.2031691 0.2321846 -0.18356986 0.18713392 0.06822854 -0.097904526 0.17839591 -0.38652492 0.15773872 0.088628404 0.25003973 -0.5838696 0.08065872 -1.0141915 -0.57617694 0.3083354 -0.46186578 0.03615293 0.87634426 0.6484041 0.17192428 -0.10659523 -0.41657332 -0.36746857 -0.28923702 0.040348373 -0.25632384 0.9088647 0.34674928 -0.7966295 -0.56674683 -0.48992506 0.005491791 0.52566665 -0.37058806 -0.37602487 -0.5252583 -0.008118935 0.36903515 0.52459145 -0.426877 0.3274085 0.19553064 0.5322663 -0.11023509 0.4587348 0.28180528
1950 0.2208978 -0.17889248 -0.64323294 0.25573173 -0.8848075 0.98470205 0.31260583 -0.51330996 -0.4389902 0.5618496 -0.42154858 -0.5048093 -0.7213039 0.46124172 -0.71600443 0.22285119 0.41475934 -0.17631526 0.32418302 0.3252288 1.5447155 0.103730515 -0.08734685 -0.853442 -0.21392791 0.15732372 0.04270064 0.0644395 0.5907748 0.23551314 -0.13698071 -0.5814928 -1.2322031 0.16657516 -0.065966986 -0.42715684 -0.39980525 0.35918513 0.13854775 -0.19405577 -0.28905588 -0.1889382 0.4558008 0.4510657 -0.5784875 0.4383604 0.40901506 -0.58887213 -0.09575676 0.22158669 0.14824659 -0.6085844 0.32620707 -0.49595535 0.38705114 -0.26867372 0.936243 0.10774896 0.49053937 0.06637612 0.36056352 -0.32887986 0.7251094 -0.25728592
146 -0.2999563 0.034049556 -0.22153215 0.035805486 -0.7641968 -0.2589418 -0.19578908 0.18451013 -0.20620327 -0.38272446 0.14936021 -0.14554131 -0.1254017 -0.40250248 0.035061922 -0.070460446 0.35650456 -0.5563288 0.6530624 0.16277951 0.24686278 0.41614577 0.69911027 -0.4809382 -0.2845382 0.66237587 -0.430144 0.27188694 0.41095567 1.3138705 -0.6314926 0.5958998 -0.31107125 -0.4232823 -0.08145608 -0.7670239 0.28268522 0.5825646 0.21441011 -0.7020237 0.4710084 -0.6275179 0.61789787 -0.048073374 0.5022594 0.7591482 -0.60909194 0.18838403 -0.66369957 -0.5899661 -0.51508164 0.62422836 0.3045867 0.5486488 0.7350348 -0.33831012 0.44945022 0.11394658 -0.53658 -0.045536205 0.5229042 -0.016216844 -0.19931729 0.8663405
2477 1.2137688 -1.0700607 0.42793182 0.41492754 -0.83425635 0.18950462 -0.5587954 0.2703553 0.15818062 -0.9846102 -0.31120616 -1.307826 0.45842072 0.03566649 0.12147361 -0.944002 0.1657443 -0.24462211 -0.29539433 -0.57512087 -0.24024984 0.29565305 0.059821285 -0.2508478 0.3463146 0.1060421 0.45425963 -0.446923 0.55131 -0.046897225 0.042555697 -0.07918844 0.3050162 -0.26177397 0.010289623 -0.5934048 0.4571781 -0.22280157 -0.49654192 -0.86438316 -0.15978114 -0.7224828 -0.49872613 0.36189574 0.7433507 0.73096514 0.41170704 -0.14474808 -0.30042818 0.7139202 0.7938073 0.3713606 0.64750165 0.061564513 -0.25984126 0.79967695 0.12821835 0.48011264 0.24963935 0.74241227 0.4051064 -0.38161972 0.74385667 0.0132081155
1341 0.157623 -0.35919392 -0.0089813955 -0.046993565 -0.28167045 0.21856467 -0.5964689 -0.09290382 0.19971994 0.5966565 -0.28930625 0.19299464 0.35288528 0.38942558 0.2500989 -0.06889592 0.14040133 0.35274974 -0.083085746 0.24227284 1.0826207 0.306458 -0.19622631 0.08961553 -0.6575431 -0.5683656 -0.4029919 -0.56152457 -0.0030599334 0.67095774 0.6576065 -0.22301804 -0.26631188 0.36863708 -0.93267524 -0.82685786 0.24393591 0.06007654 0.24337575 -1.0054362 0.5556928 0.028546354 -1.4290494 -0.15097839 1.0041188 0.5259207 -1.155901 -0.6048575 -0.28216586 0.122030966 -0.29729462 0.106156826 -0.47133207 -0.025790408 0.28655607 -0.47744778 0.15767172 0.0137378005 0.79837215 1.3180507 -0.48509172 -0.027955666 -0.0331748 -0.28979182
347 0.54506415 0.07143892 -0.088778585 -0.6042974 -0.48676258 0.6605201 0.08980158 -1.1934862 -0.9441808 0.5974106 -0.27158105 -0.10623331 -0.5763428 0.02032421 -0.9503196 0.01200968 -0.1566525 -0.16170353 -0.067610994 -0.19531146 0.7425402 0.051056534 0.003842002 -0.5669146 0.022759426 0.5392443 0.09144707 0.06360295 0.8407286 0.29591504 0.66642636 -0.5440719 -0.29224277 -0.49320686 0.834654 0.11988669 -0.3340479 0.49061278 -0.19592346 -0.13355918 -0.45440188 -0.6752601 -0.016507545 0.8183101 0.050250817 0.57088906 0.3315684 -0.22603218 -0.35036546 -0.35964343 -0.15577714 -0.4746439 0.48302388 0.11288261 0.5177508 -0.34117383 0.22198553 0.066095844 1.2422744 -0.11031414 0.31285104 -0.2746617 0.3039118 -0.8923743
3081 0.30231026 -0.11387653 -0.10447095 -0.507588 -0.8443609 1.060661 -0.55898345 0.49132672 -0.106399775 -0.6091838 0.18339826 -0.28971463 -0.012271558 -0.42777878 0.39615625 0.6353529 -0.7587776 -0.9303593 0.2840373 0.008380858 0.4948968 -0.41923252 -0.4640025 0.342073 -0.03022377 0.9470173 0.3699666 -0.47256684 -0.12840378 0.18190765 -0.25712067 -0.21269122 0.026647149 -0.16535291 0.11186723 -0.3465636 0.5455947 0.11516817 -0.09258567 -0.6104263 -0.30822638 1.0389858 -0.18696189 0.2199807 -0.9778278 0.06633548 -0.4959561 -0.20209597 0.039926562 -0.6736953 0.8336793 0.44975266 -0.19614203 0.48990068 0.6044463 1.2975447 0.18056926 -0.46565646 0.9555716 -0.008978798 -0.43972468 0.05686004 -0.034064997 -0.32635474
1337 0.5369125 0.31115985 0.21752061 -0.8913629 -0.21987809 0.50919986 -0.21066928 -0.3811596 -0.133707 0.91517967 -0.19820847 0.6142621 0.6828485 0.42207035 -0.2546167 0.24878001 -0.24244198 -0.03699197 0.029343033 -0.7291765 0.25779328 -0.43890283 -0.12061483 0.6168162 -0.5590233 -0.19694605 -0.44890398 0.20058712 -0.4968288 0.14435871 0.33343366 0.4291106 -0.33180925 0.6730424 -0.35744035 -0.37794632 0.8851232 -0.860388 -0.34539396 -0.1507185 -0.52144545 0.113055885 0.23232749 -0.11668575 0.24307172 -0.18501137 -0.6693787 -0.64401907 -0.18004872 -0.13508812 0.16316426 0.22497371 1.7056437 -0.10887539 1.0188342 0.09647365 0.036165357 0.2420863 0.16308367 0.1444508 0.40329373 0.2554462 0.78037155 0.56643915
3346 0.69867146 -0.7014632 -0.24967661 -0.9133353 -0.23052068 1.0639248 -0.17133343 -0.47388843 -0.37671906 -0.31863 -0.013432371 -0.2570858 -0.2508838 1.0107787 -0.3025186 -0.16884764 -0.34037855 -0.087972306 0.21238473 -0.3089708 -0.6191238 -0.35067675 -0.17786002 0.27611578 -0.63577324 0.74680233 0.13107935 -0.10514176 0.46111035 0.032160886 -0.5480387 0.0058922935 1.0035186 -0.35798904 -0.22581576 -0.402391 -0.47066465 1.1045306 -1.5839201 -0.5075212 -0.5384195 -0.014912501 -0.13556662 0.14042813 -0.08630633 0.034328464 -0.34318238 0.7766929 -0.11623246 0.5606781 0.105234995 0.3513339 -0.074561626 0.09254777 -0.42233413 -0.7835956 0.047675304 -0.4640375 0.5641909 0.023503834 -0.44044557 0.30854172 0.058217626 0.6258436
10 0.057361335 -0.6298369 0.24938597 -0.1700839 0.11803097 1.0285403 -0.29361507 0.5699388 -0.32850307 0.59959024 -0.22833668 -0.71233743 0.3635958 0.5656068 0.0065554827 0.19356264 0.39680514 -0.977561 -0.6419938 0.30255315 -0.29272315 -0.11430431 -1.2356913 0.2541609 -0.49941173 0.34344935 -0.16581583 -0.08543761 0.65626395 0.34981352 -1.0464371 0.143701 -0.8995526 1.1315337 0.6488762 -0.6231251 0.14153562 -0.66744 -0.248993 -0.5134523 0.0036993271 -0.05870358 0.5876015 0.17970222 0.60742694 1.0691631 -0.5735316 0.51684695 0.4550697 0.1711201 0.25800845 -0.25219983 -0.13286623 -0.78173614 0.22151427 -0.83939654 -1.1005192 -0.16349034 -0.49920514 0.018064411 -0.40534225 0.2552549 -0.5209551 -0.1163666
3821 0.23916188 -0.7132091 -0.5449065 -0.4479726 -0.90693325 0.8247332 -0.39738062 0.26299217 0.70753247 -0.17869394 -0.09592813 -0.037683804 -0.16661543 0.50649375 -0.7549555 0.5105623 -0.82614106 -0.36302656 0.4211541 -0.045585956 -0.15284963 -0.27713883 -0.24805553 -0.17570996 -0.093905926 0.6946597 -0.040532604 -0.64163166 0.169804 0.39156675 -1.0215493 -0.236997 0.4705906 -0.5913842 0.72535646 -0.6635531 0.44649535 0.08712279 -0.34095657 -0.19197331 -0.29951045 0.77208024 -0.3289667 0.3600617 -0.13443662 -0.46352962 -0.40439785 -0.86097145 0.044933293 -0.19001877 0.26267463 0.07894185 -0.3310456 -0.14214028 -0.2734356 0.88915324 -0.22816193 -0.8187687 0.9831691 -0.23108318 -0.5692142 -0.20302394 -0.33966723 0.28823623
3707 0.2755479 0.85678476 -0.297964 -0.3637651 -0.47403017 -0.14743644 0.29959914 0.2398195 -0.06411484 -0.26421547 0.28916457 -0.5438683 0.09757569 0.23969844 -0.044421468 0.25093967 0.42903215 0.6758603 0.1953949 -0.021704096 -0.34364703 0.13152452 -0.5902359 0.07367673 0.2815112 0.49523586 -0.52872854 0.5478762 0.63703644 0.31029177 -0.6146265 0.34021115 0.7169357 -0.6259005 -0.10315803 -0.19316898 0.07821604 -0.7282579 -0.12531339 -1.1363326 -0.19292468 0.024222884 0.0061951643 0.7949469 -0.25699404 0.044730898 -0.5761847 0.2072371 -0.39134818 0.19466548 -0.9318297 -0.45210958 0.2078217 -1.1321217 0.5530132 0.8482443 0.881541 -0.26951507 1.0558574 0.030482411 -0.40034673 0.27119815 -0.15796612 -0.40533182
3239 0.38060713 -1.0524848 0.59595656 0.18630567 -0.25135624 0.6494086 0.39539233 0.33415127 -0.80151755 0.5164328 0.6563773 -0.88271576 0.89198476 0.021833241 0.5201593 0.29792628 -0.042584285 -0.0014785643 -0.52568364 0.515639 -0.29675695 0.0019319863 -0.48751405 -0.45136046 -0.11715095 0.47817397 0.68710405 -0.29267457 0.6964491 0.5274062 0.5707251 0.49538398 0.680255 -0.37088048 -0.68698126 0.40695265 0.9339279 -0.5853838 0.15224676 -1.3689533 -0.43379965 0.5406128 0.10714393 0.4301616 1.3182818 -0.042343035 0.3161841 0.8207209 -0.0007346387 0.2785276 0.6926565 -0.3917728 -0.2708141 -0.31821588 0.24963368 0.41557354 1.3006622 0.53344434 0.7181882 -0.8346192 0.21673097 -0.40612844 -0.54745084 -0.3795775
59 0.058016285 1.0712329 0.080820926 -0.40989923 -0.8418454 -0.2424477 0.4102499 0.34076673 -0.012099165 -0.33106828 -0.025824226 -0.40433112 0.42641875 0.78044295 -0.21330851 0.16348381 0.5806679 1.0059766 0.11198379 0.4717802 -0.2765337 0.058833767 -0.8000901 0.13252006 0.03405769 0.61383516 -0.39242166 0.31507418 0.555612 0.1807494 -0.3562449 0.8527249 0.6781221 -0.42757213 -0.05598004 0.20979981 0.1469754 -0.6626383 -0.39399287 -1.0638905 0.16157375 -0.3263942 0.09837896 0.8739245 -0.49907482 0.37470797 -0.33175167 0.31635627 -0.23359247 0.013677041 -0.89328593 -1.0738428 0.2634359 -1.3061218 0.47061524 0.6165155 0.89189017 -0.25615352 0.9384308 -0.07360357 -0.46341765 0.34955785 0.37041152 -0.48669663
1920 -0.29104283 -0.08700109 0.18165314 -0.43164375 -0.50210303 -0.6223588 0.27012792 0.14621565 -0.32016882 0.8919449 0.059115417 -0.59824526 -0.96588814 -0.18017043 -0.20986916 0.31077093 -0.22840558 0.08570379 0.62807846 -0.49930567 -0.05175407 0.61446613 0.5659841 0.5259947 -0.19898741 0.36592293 -0.28130585 -0.915469 0.039241873 -0.270651 0.042483535 0.5972497 -0.6730344 0.33720616 0.15878555 -0.6800444 0.7100467 0.12520953 0.66935855 -0.5778193 -0.17158026 -0.42120773 -0.48198935 0.29851076 0.7279237 -0.12816311 -0.24994874 0.5286307 0.20467001 -0.31204155 -0.12268685 -0.24399722 0.6881277 -0.5373529 -0.42241517 0.116196334 0.9995904 0.1825032 -0.19780429 -0.49975476 -0.039632622 -0.4693876 0.18758936 0.46215197
136 1.019524 -0.30793014 0.105715014 -1.2154919 -0.84340215 0.6984736 0.698406 0.4352194 -0.572838 -0.19590613 0.07688492 0.0013040467 -0.11486522 0.686384 0.20793535 0.1541875 0.8235983 -0.6350595 0.4033339 -0.8729828 0.46317428 0.21582572 0.74810624 -0.21813095 -0.2384676 -0.4137113 0.03823977 -0.15641406 -0.2720724 0.6177055 0.30477384 0.42103937 -0.8602303 0.29197782 0.26957947 -0.4406915 0.22467016 -0.16832295 0.32347742 0.18810846 -0.16843903 -0.08249341 0.67145073 0.22135891 0.6164148 0.30795783 -0.24897815 0.18214454 0.5401854 -0.37647045 -0.8756771 -0.32966623 0.484837 -0.37419966 0.4139591 0.6874936 0.042168207 -0.23516679 0.43276578 0.22569962 0.1004221 0.76802844 0.6107798 0.43641424
1462 -0.10247532 -0.15522052 -0.613408 -0.3094874 -0.613603 0.89805514 -0.39625183 -0.97958237 -0.5622301 0.74490404 -0.81208193 -0.11468546 -0.45407382 0.61773485 -0.89248437 0.5963164 0.32052606 0.17436664 -0.5432389 0.10768398 0.23622835 0.6405693 0.21137403 -0.47418955 -0.16284695 0.69318897 0.013836859 0.16036381 0.8428839 0.35695738 0.19110292 -0.49127424 -1.2390758 0.056471214 0.6010726 -0.44325635 0.048292115 0.115667336 0.035646085 -0.15037808 -0.4024802 -0.58429444 0.49745595 0.8471581 -0.26549798 0.18971145 0.93472457 -0.51207775 0.030943453 -0.07953114 -0.45091432 -0.39309993 -0.46061912 -0.64694905 -0.25170097 -0.50625104 0.90820587 0.25944775 0.9469814 0.29613137 0.6891841 -0.29254782 0.23650487 -0.6244241
931 0.8958718 0.19404277 0.16692841 -1.1277248 -0.42567962 0.195309 -0.2561104 0.48126486 -0.24700671 0.15124448 -0.39769882 -0.0030070257 -0.46869925 0.21601382 0.6241273 -0.84863746 0.08982563 -0.32911503 0.21818547 -0.2609036 -0.07990393 0.08770428 -0.16079688 0.17282109 -0.56998247 1.542142 -0.20211866 -0.41840348 -0.43472388 -0.0065061394 1.1243192 0.30554307 -0.18451047 0.82983524 0.25733376 0.35922882 -0.13962127 -0.8832764 0.36272833 -0.6001172 0.15455791 0.6404899 -0.121259674 1.2326 0.4502466 0.6221715 -0.57678837 -0.08558666 -0.06511888 0.6540421 0.038451567 -0.43749943 0.2862661 0.3097575 -0.751313 -0.065368295 0.037150905 -0.11473274 0.048073597 0.21615183 0.40383148 0.21830586 -1.0021437 -0.5058283
3668 1.11034 -0.7244585 -0.3633941 -0.9130779 -0.5411907 0.9633964 -0.36991093 0.006844572 -0.45723158 -0.09140037 0.2422111 -0.6169135 -0.11226642 0.7803954 -0.7909331 -0.16771235 -0.4190284 -0.0031236103 0.47365886 0.017596127 -0.2829796 -0.5956762 0.024401488 0.3782632 -0.8765908 0.8630909 0.15357055 0.17336491 0.5677659 0.30346656 -0.40572646 -0.23519275 0.9326848 -0.2677412 -0.2171662 -0.25585335 -0.6545877 1.001661 -1.4385667 -0.19934648 -0.27213925 -0.3287178 -0.1836171 0.24712048 -0.13024408 -0.39906424 -0.51076096 0.8074103 -0.49197277 0.6758666 0.029897153 0.43902832 -0.030915571 0.24051432 -0.4519577 -0.69891524 0.44168088 -0.6391461 0.33916345 0.19437425 -0.55287296 0.71474254 0.22087625 0.54036224
2879 0.010318674 0.81558114 0.25173703 -0.4241253 -0.8771019 -0.21750134 0.5100705 0.3675192 -0.13920386 -0.84391373 -0.033979096 -0.4902907 0.54839283 0.71342564 -0.3334294 0.24141574 0.46500906 0.95196533 -0.025823085 0.6280567 -0.2280006 0.2067286 -0.5041956 0.26017728 -0.054638345 0.62510836 -0.27347004 0.2098931 0.57814926 0.033073194 -0.23583151 0.95145905 0.56243885 -0.262756 0.012424553 0.21265803 0.3541046 -0.58741474 -0.6574234 -0.7960632 0.5405482 -0.6649474 -0.04733297 0.77639544 -0.7733153 0.7133359 -0.43142834 0.48052955 -0.21251167 0.030550865 -0.7659347 -0.96633035 0.041558452 -1.1978142 0.33979836 0.87823427 1.0459527 -0.19323172 0.9537335 -0.052313726 -0.2941312 0.3965502 0.6549552 -0.35099915
273 0.8185764 0.34949392 -0.34472516 0.19832121 -0.44860426 0.4970483 -0.7447532 0.4269351 -0.2634135 -0.13664752 -0.35263062 0.3085133 -0.96915597 -0.34067318 -1.2703208 -1.4534539 0.24489188 0.061941113 1.2363477 0.5418388 -0.5167058 -0.49475917 0.13675392 0.018859599 -0.6135662 0.37547636 0.043437883 0.69644976 0.0349743 -0.15472333 0.030084465 -0.281998 0.19918099 0.76027393 0.0388726 -0.32563487 0.7254098 0.256032 -0.6642981 -0.6191031 -0.18026796 -0.15321346 0.36218965 -0.12038833 0.7346765 1.0420749 -0.60103655 0.10253972 -0.39962924 0.42202324 -0.21751785 -1.05976 -0.3082447 0.18389125 0.48841664 0.16670217 1.0213417 0.40350494 0.19203486 0.89090127 -1.3973453 0.17360877 -0.2573058 0.7610229
1236 0.6679333 0.2074857 0.15641642 -0.55451703 -0.48266235 0.5723443 0.70769054 -0.1436889 0.5173866 0.8025622 -0.30387458 -0.24223812 -0.5738102 0.24891132 -0.055237934 0.6041962 0.18304443 0.46782404 0.4513281 0.47349966 -0.6196927 -0.4703541 -0.09337636 0.21729334 -0.17477745 0.22674115 0.70037824 0.22265118 -0.8847838 -0.31471893 0.050198883 0.2094138 -0.4324959 0.23708558 -0.28140935 -0.7996288 0.6248205 0.8519505 -0.6534258 -0.07781947 -0.11153142 0.49464175 -0.34291026 -0.026656436 0.55397904 0.5708298 -0.58426607 -0.22331375 -0.41453254 -0.1552271 -0.20226258 0.28708997 1.2041521 -0.604648 1.1562161 0.316986 -0.0060963277 -0.33844432 -0.19014403 -0.34107348 0.7664052 0.36532483 -0.33183205 0.21415436
1644 0.06875509 0.25435987 -1.0443797 -0.55240625 0.08371202 0.47134405 -0.31047076 -0.72370744 -0.41225395 0.17651983 -0.04619271 -0.20675421 -0.078247465 -0.7497901 -0.36206838 0.33533996 -0.49007 0.8298891 0.1925106 -0.010701458 0.15313967 -0.2458778 1.1237266 -0.38079515 -0.8170288 0.23485018 0.06051144 -0.39969048 0.1430058 0.39909425 -0.5301438 0.68023515 0.72039986 -0.028521674 0.4601222 0.066101395 -0.39368054 -0.38645023 0.07495911 -0.5946906 -0.03940427 0.27610248 0.25908044 0.73134214 0.7975157 0.9700886 -0.4304383 -0.15473859 -0.58653736 -0.22065628 0.70631254 -0.47831216 0.14049314 -0.073958114 0.46188974 0.012500819 -0.5158777 0.23767592 0.107507855 -0.41050187 -0.15481 0.253262 0.184623 -0.21209235
1605 0.23291884 -0.28331116 -0.55349725 -0.3133932 -0.23979281 0.036747783 -0.037300494 0.7473195 -0.03506984 0.9534304 -0.6905435 0.66185164 0.13467732 0.3271249 -0.23434016 -0.04608153 -0.09576949 -0.48226836 -0.4730991 0.060304757 0.68554324 0.0016477022 -0.30631277 -0.8578043 0.54638654 0.52805114 -0.4799356 -0.060598597 0.46241486 -0.1595199 -0.14278865 0.231743 -0.768091 0.5400659 -0.025757687 -0.006687908 0.41273615 -0.7449105 -1.2770606 0.53239715 0.6891243 -0.38716185 0.09559952 0.30021656 0.9969128 0.6871653 -0.7279552 0.5623564 -0.5922934 0.036953922 0.1292895 0.25410464 -0.28986523 0.48580614 0.6976579 0.9247657 0.22445472 0.1865599 0.5784082 -0.14829919 0.17113332 0.7119742 -0.23492353 -0.5610058
556 0.35297242 0.28087783 -0.76322633 0.41100138 -0.7450595 0.4256639 -0.6110087 -0.8977573 0.44814667 0.43664354 -0.432264 -0.37218246 -0.23248792 0.08738454 -0.75396234 -0.37217885 -0.32102996 0.19146879 0.42513832 -0.18651544 0.54625046 -0.65514684 -0.061089016 -0.30803135 -0.6928817 0.82863134 -0.039587796 -1.0892962 0.24414165 0.024407983 -0.16009082 0.43919733 0.20534943 0.36327115 0.14595635 -0.8614593 0.09826728 -0.4882202 -0.23641668 -0.59659237 0.7497295 0.82147384 -0.1364098 0.17584048 -0.08919056 0.4839813 0.16452375 0.4731705 -0.14955248 -0.64924127 0.22583081 -0.26587927 -0.6857581 -1.0807682 0.4058207 0.90867454 -0.031622037 0.20751989 0.46524653 -1.2332249 -0.058316913 1.1748831 -0.27297372 0.16673516
3074 -0.6496132 -0.17997587 -1.3704736 0.15290745 -0.7011901 0.44517237 0.80809194 0.27584705 -0.66440654 0.3955327 -0.17435728 -0.82494044 0.39338496 0.44613984 0.26896748 -0.16410157 0.6263702 0.3460199 -0.83033496 -0.9238919 1.0682929 -1.0433804 -0.10453185 1.1862836 -0.30089754 0.47848237 0.23584042 0.94444996 0.09686034 -0.49549335 0.261416 -0.6441827 0.30086637 -0.11611133 0.7679127 -0.31544566 0.22373584 -0.59724593 -0.032485742 -0.9596136 0.22754824 -0.47440046 -0.189843 0.51074237 0.89504075 0.84302056 -0.92949677 0.2929986 0.7036722 0.3212906 -0.06856749 0.9869361 -0.016777156 0.2253532 1.0139847 0.79649377 0.66416895 -0.12690921 0.51487523 -0.45521188 -0.66877055 -0.54271144 -0.93473697 0.1545999
2963 0.043366626 0.33853936 0.31904557 0.12241199 -1.1165801 0.26274613 0.49265772 -0.21258721 -0.93982613 -0.5835678 -0.6311877 -0.25915685 -0.03670168 1.0782009 -0.7337939 -0.32224557 0.36991373 -0.9103553 -0.6635549 -0.40322307 0.018157212 -0.33953345 0.21994404 -0.053126056 0.44958088 0.5944028 -0.20909785 -0.3145929 -1.3249704 0.8045726 0.087503955 0.502675 -0.37222546 -0.5709131 -0.9239353 -0.1180867 0.59397876 -1.1284907 0.1436434 -0.4165204 -0.42019656 -0.5692063 0.6412682 -0.2831573 -0.2870902 0.49898934 -0.39579645 0.20855615 -0.16937336 0.21027085 0.9922101 0.40545014 -0.47626194 -0.015739582 0.42244312 -0.24717891 0.17874962 0.86827004 0.2046916 -0.28183815 -0.56349766 -0.060167633 0.16530016 -0.18202476
3481 -0.6390867 1.2084438 -0.5309822 -0.4571271 -0.13040021 2.0324283 -0.21680366 0.31323567 1.3306807 -0.21745041 0.6147779 -0.8414863 -0.17628933 0.94050467 -0.23761179 -0.3577893 0.3547931 0.011031322 -0.8926568 0.1344621 -0.08963077 0.1370564 -0.27543712 -0.09014691 -0.8748042 0.6597662 0.45657256 -0.6657866 0.7819834 0.55095637 0.1874539 0.812949 -0.6925023 -0.6769857 0.49554417 0.14279765 1.2930853 -0.2570526 0.42065483 -0.23766066 -0.45482004 0.64757794 -0.19985868 -0.07118506 0.44536996 0.86126053 0.32570016 0.013746172 -0.46715158 1.3083041 -0.43124002 -0.09028481 0.9315956 1.1837969 -0.034471784 0.46580356 1.3437475 -0.52013147 0.065206885 -0.27051556 -0.47531027 -0.70753866 -0.0010328374 0.45792112
350 0.042840198 0.8598382 -0.43266264 0.08469084 0.5086636 0.51001996 -0.7531593 -0.42689312 -1.0318485 0.91201276 0.13732289 -0.1340319 0.3660793 0.3455841 -0.42872363 0.12274541 -0.049248483 -0.57538176 -0.29474774 0.22039488 0.63924146 0.53177845 0.10884268 0.0070200157 -0.147907 0.117553435 0.71594375 -0.560856 0.07050672 -0.80490917 -0.12048139 0.7386231 0.14523487 0.057541948 -0.41346523 -0.13013425 -0.2683327 0.028085845 -0.6195996 -0.11681357 0.60416055 1.0353042 -0.4015936 0.8105853 1.2249125 0.70910645 -0.16414721 0.22855818 -0.058591105 0.3294376 -0.052657776 0.65486467 0.05035635 -0.54732937 0.55733293 0.60253096 0.33479604 0.5362756 -0.13384263 -0.79571927 0.4418887 0.8049495 -0.3240054 -0.26565543
2187 -0.3083799 -0.5343894 -1.3740166 0.055623244 -0.8730639 0.48932493 1.1507608 0.31237507 -0.39542606 0.4052923 -0.46145973 -0.33316064 0.41591862 0.60655296 0.3394367 -0.29129767 0.7966475 0.1248974 -0.681253 -1.4144138 0.87644047 -0.9979338 -0.08229104 1.1113483 -0.58055717 0.5836842 0.16180849 0.7497303 0.33546117 -0.5368023 0.3137722 -0.72268605 0.58628047 -0.23076019 1.0459094 -0.39086607 0.49424186 -0.79504323 -0.13519871 -0.9416506 0.3110584 -0.38309819 -0.052162357 0.20884356 0.79423326 0.6306077 -0.31865287 0.14262842 0.4244743 0.45715502 -0.16819869 1.1608677 -0.21703981 -4.2003318e-05 0.9695701 0.94037354 1.0043163 -0.008093284 0.6096777 -0.2706145 -0.7039513 -0.8826263 -1.2484139 0.46908137
2014 0.53475225 -0.35120904 0.15851095 -0.40658134 0.06418932 -0.5725824 -0.65405184 -0.12245143 -0.21122047 1.3737468 0.62299377 0.6002411 0.19032606 0.02086617 -0.5182833 0.32282117 0.74935967 -1.4899541 -0.7645316 0.11034908 -0.014843672 0.1584162 0.31581032 0.43947908 -0.39613774 0.014503097 0.26029497 -0.39672232 0.28311247 0.17394379 -0.15897967 0.58798707 0.18964478 0.05839577 0.559671 -0.282628 0.16779917 0.2645489 -0.7157977 -1.1859798 -0.6151925 0.10385037 0.07183449 0.60674584 -0.030423537 1.1632744 0.47304666 -0.39538035 0.47332442 0.7454107 -0.06620908 0.40900314 0.44325987 -0.56998897 1.3329866 0.3478172 -0.36054358 -0.03693308 0.1337886 -0.35368142 -1.076336 0.38330454 0.47880587 -0.15276061
3126 -0.5575341 -0.0011603491 0.061190397 -0.50777835 -0.29169247 -0.42421007 0.09620168 -0.0036171747 0.29064122 -1.1640531 0.20546645 -0.7537638 0.5113804 0.54213214 -0.23985548 0.051407974 -0.021733833 0.21408111 -0.4173431 -0.6776681 0.0709174 -0.06153743 -0.4713676 0.39496115 -0.2119344 0.49817616 -0.2190115 -0.4764553 0.16814621 -0.032768343 0.08005918 0.80636567 0.33416626 -0.23187988 0.13782302 0.78579396 1.0944253 0.3950241 -0.63645554 0.06548201 0.46359274 -0.5785853 -0.13805868 0.48462343 -0.54541796 1.0214586 -0.6227848 -0.21860613 -0.3170908 0.7096404 -0.3814582 -1.110703 0.830655 -0.8896145 0.43125242 -0.2924663 0.84263325 0.26354322 0.67805296 -0.48250073 -0.32090473 0.24736528 0.7254391 -0.42438155
1227 0.365672 0.945145 -0.31115112 -0.016664011 -1.124347 0.24276598 0.65425116 -0.41531146 -0.5746956 0.4611157 -0.068261765 -0.6348224 -0.44446108 -0.21793656 -0.837915 0.5993448 0.08311136 -0.073454 -0.5367622 -0.6561876 0.2104996 0.15381591 -0.13932814 0.4418849 -0.52063125 0.25629517 -0.7298635 0.050520774 0.35843033 0.562896 0.495807 -0.48509058 0.08008532 -0.09083512 1.097395 -0.38103855 -0.038866922 0.2797439 -0.5548185 0.27898753 -0.002267387 0.5158675 0.004628628 -0.06243837 0.27263814 1.0276858 0.14922607 0.67947996 -0.4582322 -0.622263 0.7125047 -0.096798256 0.10892749 -0.6315502 -0.32376048 -0.28385815 0.6554402 1.0067014 0.3959736 0.25324297 0.30498356 -0.2514559 0.32074228 -1.0595511
3257 -0.70260406 -0.43041292 -0.5998084 -1.2682563 -1.1994573 0.10866566 -0.49577153 0.054468248 0.048890393 -0.8396046 0.2783283 -0.011348018 -0.74383193 0.3399053 0.11258055 -0.35741252 0.06390079 0.33898008 -0.2654478 -0.090198055 0.5296219 0.5060055 -0.008416902 0.034575075 -0.91630965 0.5321603 -0.850255 -0.4165981 -0.25107145 0.33107907 0.17165227 -0.07013265 0.29096827 0.9183868 0.3604916 -0.39604238 0.40975606 -0.0871024 -1.3593787 -0.38619426 -0.059193056 -0.71523803 0.22662781 0.30216503 0.7991822 -0.8417626 0.31347352 -0.558594 -0.722402 0.2171062 0.9357569 -0.38267174 0.030687505 -0.8522287 0.20821866 0.10714488 -0.3918364 0.16732985 -0.92185795 -0.20939706 0.026399245 -0.1183062 -0.11353681 -0.09255571
498 0.6752666 -0.022240227 0.44304925 -0.50507295 -0.73428875 0.30101442 -0.115294 -0.5327259 0.727187 -0.20200539 -0.88355446 0.018888146 0.9908785 0.7969638 -0.5471408 0.422635 -0.19821 -0.18916105 -0.8720605 0.12798104 -0.3861365 0.21366154 -0.25643024 0.08144605 -0.7209219 0.19837028 -0.11857069 -0.08028478 0.042181812 -0.5682537 -0.3283823 -0.42323008 0.06779719 1.5375893 -0.004019185 -0.13459001 0.41107425 -0.8175802 -0.40519 -0.043785192 0.28019014 0.40669465 -0.23445445 0.76351017 -0.6931808 0.54667723 -0.35821575 0.7571925 -0.5258524 0.016459897 -0.6629151 0.35661837 0.73577076 0.37161157 1.0399438 -0.009740509 1.1538566 0.92679673 -0.3283664 0.32122827 0.9639683 0.77753276 0.29902685 1.360214
2254 -0.5120698 -0.18424132 -1.1059961 0.58033615 -1.0885484 0.63059413 0.73590577 0.023787122 -0.83922285 0.26162544 -0.19276544 -0.6100621 0.19693504 0.6166744 0.3530797 -0.58510405 0.6734091 0.1554277 -0.6761989 -1.1404476 0.934511 -1.1341934 -0.24352601 1.0544738 -0.675753 0.36891344 0.55482846 0.8053814 0.094738536 -0.87468797 0.45098063 -0.64925957 0.25568172 -0.44238985 0.72356844 -0.46011612 0.13953394 -0.93502295 -0.15348274 -0.62067974 0.38827085 -0.5271971 -0.29399312 0.3867916 1.006818 1.0845994 -0.6077479 0.01655014 0.48754653 0.23789364 -0.07808888 1.4702518 -0.051805157 0.0244681 1.0045608 0.75711805 1.0610204 0.065488145 0.77525455 -0.49934357 -0.94681597 -0.57278454 -1.5247378 0.5667145
711 1.2386245 0.08640552 0.09340444 -1.6452554 -0.84419376 0.7077614 0.11534245 1.0083526 -0.7402301 -0.41493303 -0.001202124 0.19566678 -0.024736699 0.56135726 0.22409327 -0.062586546 0.745119 -0.467483 0.104834594 -0.99513125 0.8255295 -0.010756933 0.268372 -0.5346243 -0.34477004 -0.69034463 -0.1500139 0.08630658 -0.3003234 0.7691341 -0.1936518 1.0833182 -0.29182637 0.5073272 0.7456777 -0.16449025 0.45440495 0.21620367 0.3456367 0.3364048 -0.03500303 0.13495316 0.4896839 0.043580167 0.965354 0.5097913 -0.31041226 0.34377646 0.74935937 0.17605615 -1.0799191 0.10623468 0.014242008 -1.4148905 0.5236086 0.9388067 0.2650409 0.62617195 0.6656087 -0.109132595 0.33820978 0.58723885 0.47809425 0.46178555
2737 0.294761 -0.37778485 0.47094023 0.115290776 -0.4269496 0.26549104 0.11524321 0.12667978 -0.24662156 -0.15966505 -0.6215042 -0.1599586 -0.90691125 -0.029087264 0.48117423 1.3448656 -0.42848474 0.64577043 0.15864396 -1.0289537 -0.21490008 0.20303485 0.017459048 -0.7334241 -1.2313792 0.27519622 0.29266235 -0.46555713 -0.005626148 0.26053765 -0.16256642 0.67577744 -0.1621382 -0.9094152 -0.34877506 -0.8218252 0.083475195 -0.70049405 -0.29241905 0.8181386 -0.6592103 -0.42982012 -0.035278942 0.76249427 0.28575146 0.15906341 0.14872311 0.5520672 0.14053614 0.021111608 -0.1107013 -0.27568957 -0.40493563 0.40432203 0.991334 0.32472995 0.9769809 -0.7471568 -0.6751523 1.0880376 -0.23896597 0.45881626 0.08964731 -0.322368
985 1.1461886 0.27461675 0.42078775 -0.6103036 -0.9377184 0.85937816 -0.5767265 0.9064316 -0.89346486 -0.8817337 0.18427311 -0.26133776 0.036852594 0.60172266 -0.20302096 0.22724983 0.66317683 -0.645678 0.14790855 -0.430267 0.8282974 0.13329192 0.5041812 0.012576029 -0.5799262 -0.4685806 -0.10238989 0.32124457 0.023917854 -0.072581254 0.42055434 0.45647353 -0.11945025 0.39567593 0.6126361 -0.15361269 0.5908166 0.066335745 -0.10870005 0.048925277 0.064884305 0.98130554 0.061360497 0.1824613 1.1441283 0.41947398 -0.3109233 0.39787567 0.004884645 0.16430505 -0.9922204 0.2590517 -0.2927814 -1.1401615 0.24208301 0.5912131 0.07027538 0.36045516 -0.5835791 -0.35319835 0.357974 0.3466674 0.56810117 0.07354509
1195 -0.5117591 -0.4227924 -0.059488792 0.30773947 0.13863763 0.73072386 0.025680043 0.65721273 -0.6835476 0.33077696 -0.066919275 -0.93682534 0.3737915 0.062306043 0.6367693 0.31609234 -0.29144657 -0.29964793 0.09328973 -0.004971944 -0.46841684 -0.70909965 0.32075325 -0.63891864 -0.11795258 0.019284826 -0.21491294 -0.4584498 -0.05617206 -0.21908057 -0.22293122 -0.7388009 -0.91404605 0.78609914 0.06529187 0.004950226 0.5097284 -0.12546718 -0.8042301 -0.2536408 -0.497191 0.06448263 0.72823006 0.53665745 0.26479483 0.89469844 0.030614099 -1.108927 0.14309765 0.3863033 -0.59509164 0.24238677 0.22930574 -0.6695581 0.478005 -0.20113508 -0.19100684 -0.5159632 0.0068967915 -0.073559664 -0.6752835 -0.0046396977 -0.68014014 0.6466684
1589 0.08140464 -0.3874299 1.4473879 0.14721343 -0.36895418 0.25106373 0.03614021 0.0033873706 -0.028788155 0.7890805 0.9675698 -0.7740766 -0.31817043 0.48976886 -0.2319777 0.06278044 -0.06736146 -0.588718 -0.6085626 0.062052876 -0.035927672 0.49572155 -0.5065345 0.15385583 0.034571998 -0.16061126 -0.12983581 -0.18281597 0.15762554 -0.10290887 -1.0369669 0.07719961 -0.6848005 0.6718603 1.2168913 -1.1110015 -0.0017981837 -0.46055853 -0.7097282 -0.4885469 0.48350158 -0.18694931 0.049954277 0.6697117 -0.19458047 1.056402 -0.41828483 0.7722733 -0.5982336 0.02256528 0.14732379 -0.1352261 -0.15449908 -0.32800353 0.40576175 0.2639491 -0.9805888 -0.43221462 -0.599703 0.08560201 -0.73939323 -0.26760814 -0.6826986 0.19865492
260 0.052987386 0.5787753 0.21896376 -0.9799018 -0.8706508 -0.21944916 0.03481016 -0.6011103 0.15450427 0.48482266 -0.25006083 -0.74560297 -0.50054574 -0.37831694 -0.72567195 0.436531 -0.38847408 -0.3048861 -0.1386368 0.09102013 0.66036975 0.7419672 -0.20787632 -0.16286375 -0.0007004953 0.61119825 0.2679415 0.192036 -0.6323334 0.16066974 0.043465354 0.065367684 -0.84225625 1.2598182 0.78071195 -0.09663532 -0.66932225 -0.055013847 0.003380603 -0.91482353 0.4089567 -0.233721 -0.27805868 -0.7237713 1.4066464 -0.3805402 -0.18392383 0.8819462 0.24491996 0.73255503 0.53071433 -0.33226788 0.5866073 -0.48430285 -0.26868337 0.045386255 0.9583808 -0.5652133 1.0136167 -0.7863446 -0.64846164 0.7166854 -0.33511227 0.89048386
1517 0.018138036 0.21526906 0.55913895 0.10585331 -0.5477926 -0.60647887 0.81582093 -0.2843055 -0.6194517 -0.57611 -0.4530491 -0.06940013 -0.666158 0.35537443 -0.45359483 0.25900945 0.076517835 0.5551592 0.21304533 -0.649449 0.619073 -0.9253527 0.48697054 -0.17539622 0.2903138 0.9453292 -0.52399766 -1.3084916 0.15568255 -0.061075233 -1.1203523 0.20431408 -0.4349269 1.315616 0.16099086 -0.2012167 0.0112716565 0.054423116 0.3419896 0.46489862 -0.27868995 0.33371684 -0.061942875 1.4775845 0.7590874 0.77463275 0.52245593 0.1092574 -0.6011084 0.3656362 0.05828963 -0.13112904 0.13648626 0.2285134 0.5112401 0.39689738 0.25575295 0.5285536 0.14891094 0.6076758 -0.59094775 -0.5368825 -0.35908526 0.097926214
424 0.15130511 -0.86140096 -0.5576936 -0.28546578 -1.1249092 0.89274716 -0.72872096 0.27229303 0.6754985 -0.45066625 -0.24085464 -0.056570917 -0.04100842 0.26550528 -0.35752586 0.57244855 -0.7050684 -0.82029074 0.11109521 0.038055584 0.14665237 -0.42377788 -0.512914 -0.01047761 -0.19743028 1.0836729 0.40002185 -0.37299767 0.04202438 0.6218423 -0.8377145 -0.078998365 0.39173794 -0.27510035 1.1384425 -0.6421908 0.37437013 -0.28428647 -0.01316835 -0.40140945 -0.1303442 1.2301904 -0.66380644 0.4628382 -0.6018971 -0.59085935 -0.16692285 -0.45095864 -0.36376983 -0.37394768 0.40087315 0.40776128 -0.5470089 -0.2729836 0.69403964 1.579198 -0.05604157 -0.69847107 1.3457193 -0.53902125 -0.56459254 0.15351264 -0.521023 -0.12436755
1800 1.745077 0.47547343 -0.5690582 0.104177 0.2487616 0.16671145 0.24107185 -1.4336379 0.3678519 0.40141165 -0.43019378 -0.7350701 0.27917102 0.1826696 0.028946782 0.15785286 0.028023556 0.533349 0.31040785 0.9664979 0.07334546 -0.113467276 0.1894958 0.8120746 0.18740629 0.490636 0.4491298 -0.4038078 -0.7586421 0.06527426 0.3506027 0.22329272 -0.13948503 0.8241379 -0.17435744 -0.7938068 0.94563335 0.3312429 -0.57051015 0.39172158 -0.2697805 -0.23622544 -0.082722515 0.6250927 0.31553268 0.5051966 0.21116616 0.06514966 0.1333204 0.2217458 -0.4448074 0.07279634 -0.25390396 -0.54847556 1.2574217 0.378911 -0.09286344 -0.7877443 0.39809322 -0.024939662 0.5791381 0.8710189 -0.32666716 0.5548575
3677 0.12710214 -0.46158797 0.14657736 0.3326688 0.10694612 0.18318047 -0.1381674 0.37241718 -0.6809709 -0.62448066 0.27034035 -0.9487366 0.8478387 0.4687356 0.008664656 0.12397007 -0.92577165 -0.024991939 0.50457275 -0.07420049 -0.33988422 0.26204965 -0.4227184 -0.6534856 0.4824967 0.49521276 -0.4301984 -0.047455546 -0.42909974 0.64451337 0.21089269 -0.9696458 0.14143978 -0.44839162 -0.0016581222 -0.46972674 0.44686538 -0.27802724 -0.084945254 -0.8661569 -0.64375776 0.37605464 0.1825754 0.08415003 1.0614264 0.15914452 0.14744514 0.056443043 0.07165006 0.4997424 -0.15490887 -0.3865802 0.28269818 -0.050221715 0.6011268 -0.45460376 0.68262523 -0.43065676 0.5434549 -0.9963816 -0.09149203 -0.48693293 -1.0463233 -0.8400312
543 0.5865606 0.23470952 -0.31603247 -0.20306529 -0.20521738 0.07642211 -0.59165114 -0.0650687 -0.30361244 -0.0045854426 -0.31395745 0.37279192 -0.6905725 -0.37346447 -1.1033385 -1.298088 0.39516103 -0.05616089 0.45616418 0.38725677 -0.3437472 -0.67479867 0.12711085 0.26236495 -0.27865362 0.38140526 -0.14628488 0.5189587 -0.15342247 -0.0011546343 -0.0076317606 -0.48640448 -0.1709524 0.47358048 0.10507577 -0.43772087 0.3114427 0.10341984 -0.50398517 -0.6451809 -0.39589506 0.4506045 0.36811095 -0.2927152 0.7709344 0.7330998 -0.59172475 0.29153013 -0.7324641 0.5010494 -0.5553899 -0.9516063 -0.63208634 -0.19373521 0.537191 0.34797406 0.88608634 0.2632608 0.48920557 0.65827805 -0.89695275 0.018248707 -0.2691771 0.41384277
3054 0.82759726 -1.5029663 0.5095337 0.107112944 -1.5904449 -0.30493024 0.55206865 -0.17238665 0.12581076 -0.17960635 -0.16320397 0.13947622 -0.0030714597 0.9673767 0.27644178 -0.07256842 -0.2691963 -0.45011622 0.10008323 0.30509496 -0.28337863 0.423949 -0.52057 -0.50840765 -0.16658041 0.15565449 0.3236349 0.06461227 0.009462006 0.7848816 -0.16651642 0.39617506 -0.11591665 -0.42018652 0.32429442 0.28820172 0.9419571 -0.5862294 -0.28826413 -0.37861753 -0.5678494 0.9108156 0.3820999 -0.44495347 0.42132095 -0.16657178 -0.15937038 0.02141496 -0.5925334 -0.18613325 0.8116993 -0.58037764 -0.08561651 -0.2685369 0.7310585 -0.19108078 -0.20735824 0.7718025 0.6760647 -0.39791822 -0.36470506 -0.26347706 -0.4037404 -0.63105893
376 0.33241418 -0.53668606 0.7243947 0.23335348 -0.50972164 0.20086208 -0.023014903 0.2192864 -0.14780909 -0.2792568 -1.0466315 -0.43247896 -1.0687835 -0.1672632 0.27322152 1.2653681 -0.4358344 0.61019397 0.02467355 -0.98316 -0.19201897 0.1500894 -0.16748817 -0.6631369 -1.1891158 0.18321954 0.4739128 -0.4022879 0.109735355 0.36141917 -0.020303607 0.6513571 -0.20267805 -0.9142196 -0.48838457 -0.8617998 0.2751142 -0.77956164 -0.23823912 0.860658 -0.8739587 -0.41398507 -0.034598503 0.4811271 -0.0120975785 0.31366035 0.34666005 0.4670535 -0.07825824 0.116416715 -0.25371277 -0.33209845 -0.55406934 0.15163448 1.0841082 0.36067173 1.0774375 -0.72426397 -0.55700433 0.84709656 -0.21351509 0.57200503 -0.15398909 -0.30697644
1061 -0.94588536 0.18182968 0.21939749 -0.5178844 0.07757794 0.1893232 -0.06568892 -0.13533112 -0.7011626 0.43024972 -1.021216 -0.11612241 0.018567704 -0.124017015 -0.18160556 0.8837844 0.0010327564 0.03580844 -0.3411092 0.37147304 -0.118430905 0.6111644 0.55371416 -0.87070405 0.4437948 0.4428022 -0.7553343 -0.4116132 0.27852556 -0.13677837 -0.6969325 0.78112024 -0.30024076 0.40645784 0.4328485 0.060990717 -0.13811105 0.13552201 -1.0596688 0.5022834 0.28708237 0.39644974 -0.41714028 -0.06246998 1.2529749 0.74867505 -0.5457435 -0.25171956 -0.24455285 0.45306206 -0.17863405 0.5110174 -0.61075896 0.37455094 0.034355354 0.85819453 0.49377164 0.3235152 0.26805404 -0.13164625 -0.13607363 -0.058373407 0.10305153 -0.3047325
404 1.0820291 0.67998785 0.18838261 -0.70576495 -0.2682773 0.3581062 -0.14884819 0.75483423 -0.1911468 0.06736758 -0.2284595 -0.4301236 -0.8822367 -0.46492347 0.6014245 -0.99529606 0.45085585 -0.41700453 -0.07209859 0.090417765 0.089073025 -0.06902418 0.34851703 -0.24795355 -1.0565401 1.8191668 -0.45591658 -0.1923288 -0.33001906 0.1519289 1.2619727 0.37185296 -0.22086984 0.7804232 0.29175124 0.09402596 -0.05217916 -0.7613601 0.16862077 -0.6594205 -0.4399041 0.5686489 -0.54586196 0.96254045 0.29989877 0.6330122 -0.5660273 -0.4570346 -0.56071645 0.58279234 0.02959331 -0.51289487 0.5768518 0.19400695 -0.4811101 0.05441319 0.5610042 -0.07090833 0.052766345 0.1354893 -0.07409474 0.048732996 -0.80979663 -0.5289296
1786 0.36073327 -0.6168415 0.84837836 -0.68740374 0.14629023 -0.028577931 -0.3853561 0.61834264 -0.46081358 0.6670795 0.66104853 0.28165215 -0.2466531 0.43014035 -0.6992972 1.034864 1.0048546 -0.5322958 -0.9104506 1.3297956 0.16878295 -0.12710798 0.15203191 0.8699833 -0.28557035 0.0331702 -0.48382846 -0.1129261 0.13347805 -0.4251696 0.124829724 0.015445622 -0.5575663 0.8143309 0.35317582 0.08244833 0.09480272 0.32367486 -0.6506278 -1.2754377 -0.67590934 -0.17496236 -0.066245206 0.9616171 0.023618251 1.1209755 0.41690084 -0.06011787 -0.41088843 0.88362193 0.22929299 0.78765345 0.025317112 -0.42933553 1.0392942 0.719142 -0.5341051 -0.35775182 0.24652356 -0.25002027 -0.8338022 0.2610585 -0.036972344 -0.1699155
2625 -0.2715688 -0.239921 -0.3621164 -0.46792293 -1.078217 1.1039959 -0.057507955 -0.008893817 -0.2686302 0.5528119 -0.12155554 -0.5196284 -0.85489535 0.5441256 -1.5669756 0.39874905 0.43705562 -0.2589517 -0.60807157 0.10714656 0.07489051 -0.43375334 -0.49760684 -0.25528663 0.41162315 -0.049501065 -0.20716262 0.25594646 -0.47773203 -0.48629194 0.2435275 0.4308782 -1.0095739 -0.46038586 0.39055535 -0.4876574 -0.70166063 0.5880601 -0.15986426 -0.15874127 0.8393989 0.06803591 0.33932152 0.8787387 -0.17095551 0.8976248 -0.21622884 -0.11811128 -0.0662113 0.11687942 0.99095494 -0.11683187 -0.21816932 -0.34486306 0.30396298 -0.54202795 1.3124158 0.5657664 0.16885132 0.47225598 1.3841513 -0.10870541 0.37626937 -0.85854965
371 0.10131288 0.30116633 0.06701002 0.04546477 -0.7931658 0.35198498 0.3867015 0.4028627 0.34896338 0.20025127 -0.49938425 1.0068774 0.039724596 -0.032351453 -0.24497974 -0.40486607 0.2888261 0.55456954 0.627112 -0.07971644 -0.32999185 0.75673515 -0.15538433 0.15735011 -0.49062258 -0.3183881 0.8181134 -0.3715658 -0.23096146 0.2926275 -0.18130212 0.37156746 -0.32156086 0.09497677 0.8142336 0.30800638 0.33375028 1.22081 0.029872255 0.089390524 -0.21679443 0.078932345 -0.31443346 1.0438396 0.15596147 0.21239817 -0.4854143 -0.63849187 0.5188544 0.79573166 -0.13145964 0.025476767 0.46873686 -0.8706964 0.45061415 0.21311587 0.075689316 0.5070318 -0.2957986 0.066005364 0.024280172 -0.26992196 -0.29777578 0.22565499
3119 -0.8626073 0.45432723 0.42893362 -0.45547923 -0.24263585 0.4301058 0.23916152 0.24955848 0.03568211 -0.54103124 -0.17859504 0.50265336 0.7432387 -0.60787874 -0.9189962 -0.55429095 0.05532558 0.26893014 -0.5105072 0.38984558 0.34883276 -0.6672894 0.18644041 -0.29394537 -0.84096634 -0.75988644 -0.047319543 -1.1447936 -0.8336774 0.081160486 -0.6268099 -0.5554465 -0.58761984 -0.7631807 -0.18976665 -1.1550227 0.74547684 -0.10292631 -0.754864 -0.6994847 0.05564328 0.041070454 -0.48103273 0.058491834 0.3014732 0.47452185 0.10069725 0.031419743 0.05975361 0.068865374 -0.26076338 -0.16680531 -0.4049784 -0.59171504 0.39984804 -0.7335826 0.9839353 -0.39855623 0.15988441 0.26103085 -0.10350512 -0.030973878 -0.5335713 -0.74065983
2327 -0.7351091 -0.41125742 -1.2440917 0.047993116 -1.2473938 0.42802718 0.95779973 -0.10374319 -0.11204213 0.24862258 -0.48011157 -0.9163904 0.064233296 0.3552842 -0.17906645 -0.70770687 0.7173721 0.5237066 -0.6945617 -1.2640665 1.1799058 -1.3103867 -0.5163945 1.2554423 -0.31604117 0.37004933 0.38302413 0.89428914 -0.44413564 -0.8741863 0.4411104 -0.91732377 0.58116937 -0.17700283 0.64429677 -0.52964926 0.2477727 -0.84402424 -0.2754643 -0.89911264 0.5354246 -0.6526091 -0.20086165 0.6264169 1.0416868 1.0254645 -0.48013794 0.15189043 0.47650677 0.5028248 -0.30362883 1.94142 -0.18453962 0.031835537 1.1583953 0.8505361 1.1755413 0.34878522 0.701379 -0.30624518 -0.89800566 -0.37576634 -1.7630405 0.6340047
3 0.46167085 0.436572 -0.47122747 -0.02111479 -0.7886393 0.62950075 0.9853928 0.14554337 0.7590257 0.25539947 0.022810938 -0.4969319 0.3609523 -0.21015316 -0.035019655 0.21629933 -0.7654818 -0.45780897 -0.028399706 0.04939878 0.21188498 -0.07304593 0.35502622 -0.28757426 -0.37964037 -0.60006285 -0.76031375 0.25034058 -0.35015872 0.02296143 0.32043743 -0.5128698 0.586903 1.0539159 0.189512 -0.40124136 0.26328394 -0.42169884 -0.22390828 -0.1475712 0.17708243 -0.19332293 -0.3457108 0.78402865 0.6188237 0.3859567 0.2902411 0.6593377 -0.5316027 -0.6524235 -1.0431813 0.38029438 0.42464772 -0.8127834 0.8150377 0.005973168 0.5310261 0.38477588 0.586158 -0.46554443 -0.28946456 0.93603027 0.13862357 -0.050135445
1 0.31010813 0.22423998 -0.33986783 -0.21771885 -0.5039778 0.5298202 0.71534646 -0.04844897 0.6672283 0.18575183 -0.07643141 -0.28635648 0.3059554 0.02702084 -0.081412144 0.15266097 -0.7470124 -0.4378106 -0.3867015 0.18181734 0.08305407 -0.47354317 0.512245 -0.33118433 -0.24206291 -0.54953724 -0.42546204 0.10472473 -0.31545204 0.17975557 0.30410102 -0.806145 0.24491048 0.9377091 -0.009686101 -0.17497009 -0.11280229 -0.3594434 -0.16065209 -0.33646008 0.53841144 -0.21883003 -0.47312593 0.9160869 0.6483987 0.117930256 -0.038989887 0.54915917 -0.5469877 -0.43247563 -0.93420863 0.40867013 0.44456077 -0.49502608 0.81243944 0.07168763 0.48961034 0.19133613 0.7221494 -0.26645672 -0.30135825 0.98087984 -0.001485944 0.23482583
2091 -0.13068236 -0.5624217 0.02513776 -0.61729693 0.31823936 0.39010742 -0.6070938 0.2436163 -0.4009913 1.0200313 0.31766033 -0.029268498 0.40246245 -0.43691263 -0.3127597 0.04322654 -0.13031523 -0.6666648 -0.3913775 -0.29888383 1.0668466 0.22957891 0.23519586 -0.10200995 -0.22460647 -0.41371545 0.28806016 0.87458485 0.6814998 0.06244393 -0.32302928 0.5169639 -0.4286569 0.45406082 0.27961332 -0.3873514 -0.23921652 -0.5182274 -0.14643918 -0.4500254 0.75461656 0.053041793 -0.4163094 0.9005289 0.073534116 0.35908738 0.34107164 0.56135875 -0.47393906 0.66130763 0.5798993 0.7037526 0.33297974 -0.85940844 0.8198355 0.6280948 0.5667204 0.32983828 -0.24420384 -0.28925198 -0.36347026 1.1589409 -1.1029277 0.7647561
2 0.14603592 0.020099014 -0.2491545 -0.028259013 -0.37067562 0.8459124 0.75989276 0.21514755 0.5453866 0.62933224 0.2058001 0.11744923 0.5769707 0.07316506 -0.26791877 0.42488134 -0.6042589 -0.45956668 -0.37720042 -0.12209699 0.32610297 -0.02141884 0.42453882 -0.59646714 -0.22969559 -0.29041022 -0.5347538 0.22719425 0.051478203 -0.11738623 0.07641988 -0.71835434 0.104023 0.9220263 0.0698144 -0.32087433 0.16133472 -0.34792328 -0.23949718 -0.28717068 0.6220759 -0.45188475 -0.45578635 0.9375712 0.7924306 0.55274266 0.67326725 0.6329568 -0.37904564 -0.54587096 -0.39825556 0.6190483 0.38604182 -0.52625054 0.8324341 0.20464261 0.2051731 0.16721077 0.37965584 -0.4765338 -0.6138427 1.1153405 -0.47263035 0.2204628
4 -0.1299371 0.072022505 -0.64787054 0.10144237 -0.6391622 0.50528836 0.69727623 0.64563304 0.59414554 0.24451198 -0.19780673 -0.1469612 0.22921413 0.113217175 -0.29931432 0.49209645 -0.83973455 -0.5883301 0.013709811 -0.044350207 0.28454882 -0.393771 0.53136265 -0.32425338 0.14668423 -0.29042232 -0.20015185 -0.35175297 -0.005483824 0.0400038 0.2960203 -0.7604666 0.3012954 0.740616 0.19308668 0.3226517 -0.32634038 -0.14524426 0.14997645 -0.24035102 0.040695906 -0.49391794 -0.55152005 0.8005943 0.8097061 0.25511396 0.34876022 0.53722435 -0.6729672 -0.51991165 -0.56176776 0.58187133 0.16718687 -0.82920843 0.40364063 -0.059241887 0.50051636 0.29643694 0.26637563 0.08437273 -0.22829999 0.79207295 -0.36614364 0.14465284
328 0.3661418 -0.2039676 0.2433571 -0.2204795 0.151967 1.0004504 -0.15016896 0.32176545 -0.06231602 0.82378536 -0.33410448 0.15589125 0.39027533 -0.8593924 -0.6168298 -0.052157518 0.22313309 -0.4943525 0.15056749 0.32158792 0.040108275 -0.12120949 -0.81640416 -0.70170635 0.17379065 0.012032234 -0.71132237 -0.65144086 0.3715522 0.61720765 -0.27244532 0.093432486 -0.16877553 0.74333364 0.19853893 0.593548 -0.09825222 -0.5351846 -0.43589178 -0.009209904 0.79501176 -0.91315895 -0.13002817 0.59733206 0.92602706 0.9129751 -0.31185934 0.39446867 0.10663837 0.4748305 -0.58571684 0.28968385 0.5615749 0.18495019 0.97438496 0.63818896 -0.27029023 0.7694372 0.70219374 -0.60403633 -0.61706614 0.39861733 -0.38500184 -0.29665655
